digraph Tree {
node [shape=box, style="rounded", color="black", fontname=helvetica] ;
edge [fontname=helvetica] ;
0 [label="http://dbpedia.org/ontology/birthPlace?inv#count <= 0.8\nmse = 0.5\nsamples = 19874\nvalue = 3.9"] ;
1 [label="http://dbpedia.org/ontology/country#1@OTHER <= 0.5\nmse = 0.4\nsamples = 17129\nvalue = 3.8"] ;
0 -> 1 [labeldistance=2.5, labelangle=45, headlabel="True"] ;
2 [label="http://dbpedia.org/ontology/country#1@<http://dbpedia.org/resource/India> <= 0.5\nmse = 0.2\nsamples = 13075\nvalue = 3.6"] ;
1 -> 2 ;
3 [label="http://dbpedia.org/ontology/country#1@<http://dbpedia.org/resource/Brazil> <= 0.5\nmse = 0.2\nsamples = 12300\nvalue = 3.6"] ;
2 -> 3 ;
4 [label="http://dbpedia.org/ontology/birthPlace?inv#count <= 0.2\nmse = 0.2\nsamples = 12137\nvalue = 3.6"] ;
3 -> 4 ;
5 [label="http://dbpedia.org/ontology/country#1@<http://dbpedia.org/resource/Mexico> <= 0.5\nmse = 0.1\nsamples = 7765\nvalue = 3.5"] ;
4 -> 5 ;
6 [label="http://dbpedia.org/ontology/areaTotal#1 <= 11895000.0\nmse = 0.1\nsamples = 7609\nvalue = 3.5"] ;
5 -> 6 ;
7 [label="http://dbpedia.org/ontology/populationDensity#1 <= 2319.8\nmse = 0.1\nsamples = 4776\nvalue = 3.4"] ;
6 -> 7 ;
8 [label="http://dbpedia.org/ontology/country#1@<http://dbpedia.org/resource/Australia> <= 0.5\nmse = 0.1\nsamples = 4736\nvalue = 3.4"] ;
7 -> 8 ;
9 [label="http://www.w3.org/1999/02/22-rdf-syntax-ns#type#1@OTHER <= 0.5\nmse = 0.1\nsamples = 4397\nvalue = 3.4"] ;
8 -> 9 ;
10 [label="http://dbpedia.org/ontology/populationAsOf#1@"2009-06-30"^^<http://www.w3.org/2001/XMLSchema#date> <= 0.5\nmse = 0.1\nsamples = 3767\nvalue = 3.4"] ;
9 -> 10 ;
11 [label="http://dbpedia.org/ontology/populationAsOf#1@"2008-06-30"^^<http://www.w3.org/2001/XMLSchema#date> <= 0.5\nmse = 0.1\nsamples = 3766\nvalue = 3.4"] ;
10 -> 11 ;
12 [label="http://dbpedia.org/ontology/country#1@<http://dbpedia.org/resource/Ukraine> <= 0.5\nmse = 0.1\nsamples = 3754\nvalue = 3.4"] ;
11 -> 12 ;
13 [label="http://dbpedia.org/ontology/elevation#1 <= 291.5\nmse = 0.1\nsamples = 3711\nvalue = 3.4"] ;
12 -> 13 ;
14 [label="http://dbpedia.org/ontology/locationCity?inv#count <= 0.2\nmse = 0.1\nsamples = 3079\nvalue = 3.4"] ;
13 -> 14 ;
15 [label="http://dbpedia.org/ontology/areaLand#1 <= 4700414.2\nmse = 0.1\nsamples = 3047\nvalue = 3.4"] ;
14 -> 15 ;
16 [label="http://dbpedia.org/ontology/ground?inv#count <= 0.2\nmse = 0.1\nsamples = 2711\nvalue = 3.4"] ;
15 -> 16 ;
17 [label="http://dbpedia.org/ontology/country#1@<http://dbpedia.org/resource/Romania> <= 0.5\nmse = 0.1\nsamples = 2665\nvalue = 3.4"] ;
16 -> 17 ;
18 [label="http://dbpedia.org/ontology/region#1@<http://dbpedia.org/resource/Cook_County,_Illinois> <= 0.5\nmse = 0.1\nsamples = 2228\nvalue = 3.4"] ;
17 -> 18 ;
19 [label="http://dbpedia.org/ontology/populationAsOf#1@OTHER <= 0.5\nmse = 0.1\nsamples = 2224\nvalue = 3.4"] ;
18 -> 19 ;
20 [label="http://dbpedia.org/ontology/areaTotal#1 <= 1760000.0\nmse = 0.1\nsamples = 237\nvalue = 3.3"] ;
19 -> 20 ;
21 [label="http://dbpedia.org/ontology/populationDensity#1 <= 1588.5\nmse = 0.0\nsamples = 40\nvalue = 3.1"] ;
20 -> 21 ;
22 [label="http://dbpedia.org/ontology/leaderTitle#count <= 0.5\nmse = 0.0\nsamples = 36\nvalue = 3.1"] ;
21 -> 22 ;
23 [label="http://dbpedia.org/ontology/areaTotal#1 <= 1165000.0\nmse = 0.0\nsamples = 35\nvalue = 3.1"] ;
22 -> 23 ;
24 [label="http://dbpedia.org/ontology/populationDensity#1 <= 1515.5\nmse = 0.0\nsamples = 9\nvalue = 3.0"] ;
23 -> 24 ;
25 [label="http://dbpedia.org/ontology/populationDensity#count <= 0.2\nmse = 0.0\nsamples = 8\nvalue = 3.0"] ;
24 -> 25 ;
26 [label="mse = 0.0\nsamples = 1\nvalue = 3.0"] ;
25 -> 26 ;
27 [label="http://dbpedia.org/ontology/areaTotal#1 <= 740000.0\nmse = 0.0\nsamples = 7\nvalue = 3.0"] ;
25 -> 27 ;
28 [label="mse = 0.0\nsamples = 1\nvalue = 3.0"] ;
27 -> 28 ;
29 [label="http://dbpedia.org/ontology/postalCode#count <= 0.2\nmse = 0.0\nsamples = 6\nvalue = 3.0"] ;
27 -> 29 ;
30 [label="http://dbpedia.org/ontology/populationDensity#1 <= 1163.0\nmse = 0.0\nsamples = 5\nvalue = 3.0"] ;
29 -> 30 ;
31 [label="http://dbpedia.org/ontology/populationDensity#1 <= 1019.5\nmse = 0.0\nsamples = 2\nvalue = 3.1"] ;
30 -> 31 ;
32 [label="mse = 0.0\nsamples = 1\nvalue = 3.0"] ;
31 -> 32 ;
33 [label="mse = -0.0\nsamples = 1\nvalue = 3.1"] ;
31 -> 33 ;
34 [label="rel#count <= 1.2\nmse = 0.0\nsamples = 3\nvalue = 3.0"] ;
30 -> 34 ;
35 [label="mse = 0.0\nsamples = 2\nvalue = 3.0"] ;
34 -> 35 ;
36 [label="mse = -0.0\nsamples = 1\nvalue = 3.1"] ;
34 -> 36 ;
37 [label="mse = -0.0\nsamples = 1\nvalue = 3.0"] ;
29 -> 37 ;
38 [label="mse = -0.0\nsamples = 1\nvalue = 3.2"] ;
24 -> 38 ;
39 [label="http://dbpedia.org/ontology/populationDensity#1 <= 1317.5\nmse = 0.0\nsamples = 26\nvalue = 3.1"] ;
23 -> 39 ;
40 [label="http://dbpedia.org/ontology/type#count <= 0.2\nmse = 0.0\nsamples = 22\nvalue = 3.1"] ;
39 -> 40 ;
41 [label="http://dbpedia.org/ontology/populationDensity#1 <= 952.0\nmse = 0.0\nsamples = 20\nvalue = 3.1"] ;
40 -> 41 ;
42 [label="http://dbpedia.org/ontology/populationDensity#1 <= 697.5\nmse = 0.0\nsamples = 12\nvalue = 3.1"] ;
41 -> 42 ;
43 [label="http://dbpedia.org/ontology/areaCode#count <= 0.2\nmse = 0.0\nsamples = 3\nvalue = 3.0"] ;
42 -> 43 ;
44 [label="http://dbpedia.org/ontology/city?inv#count <= 0.2\nmse = 0.0\nsamples = 2\nvalue = 3.0"] ;
43 -> 44 ;
45 [label="mse = 0.0\nsamples = 1\nvalue = 3.0"] ;
44 -> 45 ;
46 [label="mse = 0.0\nsamples = 1\nvalue = 3.0"] ;
44 -> 46 ;
47 [label="mse = -0.0\nsamples = 1\nvalue = 3.0"] ;
43 -> 47 ;
48 [label="http://dbpedia.org/ontology/areaTotal#1 <= 1340000.0\nmse = 0.0\nsamples = 9\nvalue = 3.1"] ;
42 -> 48 ;
49 [label="http://dbpedia.org/ontology/areaTotal#1 <= 1255000.0\nmse = 0.0\nsamples = 3\nvalue = 3.1"] ;
48 -> 49 ;
50 [label="mse = 0.0\nsamples = 1\nvalue = 3.0"] ;
49 -> 50 ;
51 [label="http://dbpedia.org/ontology/populationDensity#1 <= 924.0\nmse = 0.0\nsamples = 2\nvalue = 3.1"] ;
49 -> 51 ;
52 [label="mse = 0.0\nsamples = 1\nvalue = 3.1"] ;
51 -> 52 ;
53 [label="mse = 0.0\nsamples = 1\nvalue = 3.1"] ;
51 -> 53 ;
54 [label="http://dbpedia.org/ontology/areaTotal#1 <= 1705000.0\nmse = 0.0\nsamples = 6\nvalue = 3.1"] ;
48 -> 54 ;
55 [label="rel#count <= 1.2\nmse = 0.0\nsamples = 5\nvalue = 3.1"] ;
54 -> 55 ;
56 [label="http://dbpedia.org/ontology/areaTotal#1 <= 1430000.0\nmse = 0.0\nsamples = 4\nvalue = 3.1"] ;
55 -> 56 ;
57 [label="mse = 0.0\nsamples = 1\nvalue = 3.1"] ;
56 -> 57 ;
58 [label="http://dbpedia.org/ontology/areaTotal#1 <= 1615000.0\nmse = 0.0\nsamples = 3\nvalue = 3.1"] ;
56 -> 58 ;
59 [label="http://dbpedia.org/ontology/populationDensity#1 <= 835.0\nmse = 0.0\nsamples = 2\nvalue = 3.1"] ;
58 -> 59 ;
60 [label="mse = 0.0\nsamples = 1\nvalue = 3.1"] ;
59 -> 60 ;
61 [label="mse = 0.0\nsamples = 1\nvalue = 3.1"] ;
59 -> 61 ;
62 [label="mse = -0.0\nsamples = 1\nvalue = 3.1"] ;
58 -> 62 ;
63 [label="mse = 0.0\nsamples = 1\nvalue = 3.1"] ;
55 -> 63 ;
64 [label="mse = 0.0\nsamples = 1\nvalue = 3.1"] ;
54 -> 64 ;
65 [label="http://dbpedia.org/ontology/deathPlace?inv#count <= 0.2\nmse = 0.0\nsamples = 8\nvalue = 3.1"] ;
41 -> 65 ;
66 [label="http://dbpedia.org/ontology/areaTotal#1 <= 1210000.0\nmse = 0.0\nsamples = 7\nvalue = 3.2"] ;
65 -> 66 ;
67 [label="mse = -0.0\nsamples = 1\nvalue = 3.2"] ;
66 -> 67 ;
68 [label="http://dbpedia.org/ontology/areaTotal#1 <= 1350000.0\nmse = 0.0\nsamples = 6\nvalue = 3.2"] ;
66 -> 68 ;
69 [label="http://dbpedia.org/ontology/populationDensity#1 <= 1018.0\nmse = 0.0\nsamples = 2\nvalue = 3.1"] ;
68 -> 69 ;
70 [label="mse = 0.0\nsamples = 1\nvalue = 3.1"] ;
69 -> 70 ;
71 [label="mse = -0.0\nsamples = 1\nvalue = 3.1"] ;
69 -> 71 ;
72 [label="http://dbpedia.org/ontology/areaTotal#1 <= 1500000.0\nmse = 0.0\nsamples = 4\nvalue = 3.2"] ;
68 -> 72 ;
73 [label="http://dbpedia.org/ontology/hometown?inv#count <= 0.2\nmse = 0.0\nsamples = 3\nvalue = 3.2"] ;
72 -> 73 ;
74 [label="http://dbpedia.org/ontology/areaTotal#1 <= 1430000.0\nmse = 0.0\nsamples = 2\nvalue = 3.2"] ;
73 -> 74 ;
75 [label="mse = 0.0\nsamples = 1\nvalue = 3.2"] ;
74 -> 75 ;
76 [label="mse = 0.0\nsamples = 1\nvalue = 3.2"] ;
74 -> 76 ;
77 [label="mse = 0.0\nsamples = 1\nvalue = 3.1"] ;
73 -> 77 ;
78 [label="mse = 0.0\nsamples = 1\nvalue = 3.2"] ;
72 -> 78 ;
79 [label="mse = 0.0\nsamples = 1\nvalue = 3.1"] ;
65 -> 79 ;
80 [label="http://dbpedia.org/ontology/timeZone#1@<http://dbpedia.org/resource/Pacific_Time_Zone> <= 0.5\nmse = 0.0\nsamples = 2\nvalue = 3.2"] ;
40 -> 80 ;
81 [label="mse = 0.0\nsamples = 1\nvalue = 3.2"] ;
80 -> 81 ;
82 [label="mse = -0.0\nsamples = 1\nvalue = 3.3"] ;
80 -> 82 ;
83 [label="http://dbpedia.org/ontology/populationDensity#1 <= 1363.0\nmse = 0.0\nsamples = 4\nvalue = 3.3"] ;
39 -> 83 ;
84 [label="http://dbpedia.org/ontology/areaTotal#1 <= 1235000.0\nmse = 0.0\nsamples = 2\nvalue = 3.2"] ;
83 -> 84 ;
85 [label="mse = 0.0\nsamples = 1\nvalue = 3.2"] ;
84 -> 85 ;
86 [label="mse = 0.0\nsamples = 1\nvalue = 3.2"] ;
84 -> 86 ;
87 [label="http://dbpedia.org/ontology/populationDensity#1 <= 1423.5\nmse = 0.0\nsamples = 2\nvalue = 3.3"] ;
83 -> 87 ;
88 [label="mse = 0.0\nsamples = 1\nvalue = 3.3"] ;
87 -> 88 ;
89 [label="mse = 0.0\nsamples = 1\nvalue = 3.3"] ;
87 -> 89 ;
90 [label="mse = 0.0\nsamples = 1\nvalue = 3.4"] ;
22 -> 90 ;
91 [label="http://dbpedia.org/ontology/residence?inv#count <= 0.2\nmse = 0.0\nsamples = 4\nvalue = 3.4"] ;
21 -> 91 ;
92 [label="http://dbpedia.org/ontology/populationDensity#1 <= 2010.5\nmse = 0.0\nsamples = 3\nvalue = 3.4"] ;
91 -> 92 ;
93 [label="http://dbpedia.org/ontology/populationDensity#1 <= 1706.0\nmse = 0.0\nsamples = 2\nvalue = 3.4"] ;
92 -> 93 ;
94 [label="mse = 0.0\nsamples = 1\nvalue = 3.4"] ;
93 -> 94 ;
95 [label="mse = 0.0\nsamples = 1\nvalue = 3.4"] ;
93 -> 95 ;
96 [label="mse = 0.0\nsamples = 1\nvalue = 3.4"] ;
92 -> 96 ;
97 [label="mse = 0.0\nsamples = 1\nvalue = 3.3"] ;
91 -> 97 ;
98 [label="http://xmlns.com/foaf/0.1/name#count <= 0.2\nmse = 0.1\nsamples = 197\nvalue = 3.4"] ;
20 -> 98 ;
99 [label="http://dbpedia.org/ontology/region#count <= 0.2\nmse = 0.1\nsamples = 127\nvalue = 3.3"] ;
98 -> 99 ;
100 [label="http://dbpedia.org/ontology/populationAsOf#1@"2006-06-30"^^<http://www.w3.org/2001/XMLSchema#date> <= 0.5\nmse = 0.0\nsamples = 126\nvalue = 3.3"] ;
99 -> 100 ;
101 [label="http://dbpedia.org/ontology/areaTotal#1 <= 11365000.0\nmse = 0.0\nsamples = 125\nvalue = 3.3"] ;
100 -> 101 ;
102 [label="http://dbpedia.org/ontology/areaTotal#1 <= 10930000.0\nmse = 0.0\nsamples = 118\nvalue = 3.3"] ;
101 -> 102 ;
103 [label="rel#count <= 1.0\nmse = 0.0\nsamples = 112\nvalue = 3.3"] ;
102 -> 103 ;
104 [label="http://dbpedia.org/ontology/elevation#1 <= 67.5\nmse = 0.0\nsamples = 46\nvalue = 3.2"] ;
103 -> 104 ;
105 [label="http://dbpedia.org/ontology/areaTotal#1 <= 8050000.0\nmse = 0.0\nsamples = 13\nvalue = 3.3"] ;
104 -> 105 ;
106 [label="http://dbpedia.org/ontology/elevation#1 <= 21.5\nmse = 0.0\nsamples = 9\nvalue = 3.4"] ;
105 -> 106 ;
107 [label="http://xmlns.com/foaf/0.1/homepage#count <= 0.2\nmse = 0.0\nsamples = 3\nvalue = 3.5"] ;
106 -> 107 ;
108 [label="mse = 0.0\nsamples = 1\nvalue = 3.4"] ;
107 -> 108 ;
109 [label="http://dbpedia.org/ontology/areaTotal#1 <= 4985000.0\nmse = 0.0\nsamples = 2\nvalue = 3.5"] ;
107 -> 109 ;
110 [label="mse = 0.0\nsamples = 1\nvalue = 3.5"] ;
109 -> 110 ;
111 [label="mse = 0.0\nsamples = 1\nvalue = 3.5"] ;
109 -> 111 ;
112 [label="http://dbpedia.org/ontology/areaTotal#1 <= 7710000.0\nmse = 0.0\nsamples = 6\nvalue = 3.4"] ;
106 -> 112 ;
113 [label="http://dbpedia.org/ontology/district#count <= 0.2\nmse = 0.0\nsamples = 4\nvalue = 3.3"] ;
112 -> 113 ;
114 [label="rel#count <= 1.0\nmse = 0.0\nsamples = 3\nvalue = 3.3"] ;
113 -> 114 ;
115 [label="http://dbpedia.org/ontology/areaTotal#1 <= 7075000.0\nmse = 0.0\nsamples = 2\nvalue = 3.3"] ;
114 -> 115 ;
116 [label="mse = 0.0\nsamples = 1\nvalue = 3.3"] ;
115 -> 116 ;
117 [label="mse = -0.0\nsamples = 1\nvalue = 3.3"] ;
115 -> 117 ;
118 [label="mse = 0.0\nsamples = 1\nvalue = 3.3"] ;
114 -> 118 ;
119 [label="mse = 0.0\nsamples = 1\nvalue = 3.4"] ;
113 -> 119 ;
120 [label="http://dbpedia.org/ontology/areaTotal#1 <= 7865000.0\nmse = 0.0\nsamples = 2\nvalue = 3.5"] ;
112 -> 120 ;
121 [label="mse = 0.0\nsamples = 1\nvalue = 3.5"] ;
120 -> 121 ;
122 [label="mse = -0.0\nsamples = 1\nvalue = 3.5"] ;
120 -> 122 ;
123 [label="http://dbpedia.org/ontology/elevation#1 <= 64.0\nmse = 0.0\nsamples = 4\nvalue = 3.2"] ;
105 -> 123 ;
124 [label="http://dbpedia.org/ontology/elevation#1 <= 47.0\nmse = 0.0\nsamples = 3\nvalue = 3.1"] ;
123 -> 124 ;
125 [label="http://dbpedia.org/ontology/areaTotal#1 <= 9500000.0\nmse = 0.0\nsamples = 2\nvalue = 3.1"] ;
124 -> 125 ;
126 [label="mse = 0.0\nsamples = 1\nvalue = 3.0"] ;
125 -> 126 ;
127 [label="mse = 0.0\nsamples = 1\nvalue = 3.1"] ;
125 -> 127 ;
128 [label="mse = 0.0\nsamples = 1\nvalue = 3.2"] ;
124 -> 128 ;
129 [label="mse = 0.0\nsamples = 1\nvalue = 3.4"] ;
123 -> 129 ;
130 [label="http://dbpedia.org/ontology/areaTotal#1 <= 7825000.0\nmse = 0.0\nsamples = 33\nvalue = 3.2"] ;
104 -> 130 ;
131 [label="http://dbpedia.org/ontology/elevation#1 <= 87.5\nmse = 0.0\nsamples = 15\nvalue = 3.1"] ;
130 -> 131 ;
132 [label="http://dbpedia.org/ontology/elevation#1 <= 76.5\nmse = 0.0\nsamples = 2\nvalue = 3.2"] ;
131 -> 132 ;
133 [label="mse = 0.0\nsamples = 1\nvalue = 3.1"] ;
132 -> 133 ;
134 [label="mse = 0.0\nsamples = 1\nvalue = 3.2"] ;
132 -> 134 ;
135 [label="http://dbpedia.org/ontology/elevation#1 <= 246.5\nmse = 0.0\nsamples = 13\nvalue = 3.1"] ;
131 -> 135 ;
136 [label="http://dbpedia.org/ontology/elevation#1 <= 164.0\nmse = 0.0\nsamples = 10\nvalue = 3.1"] ;
135 -> 136 ;
137 [label="http://dbpedia.org/ontology/elevation#1 <= 152.5\nmse = 0.0\nsamples = 4\nvalue = 3.1"] ;
136 -> 137 ;
138 [label="http://dbpedia.org/ontology/areaTotal#1 <= 6370000.0\nmse = 0.0\nsamples = 3\nvalue = 3.0"] ;
137 -> 138 ;
139 [label="http://dbpedia.org/ontology/elevation#1 <= 106.5\nmse = 0.0\nsamples = 2\nvalue = 3.0"] ;
138 -> 139 ;
140 [label="mse = 0.0\nsamples = 1\nvalue = 3.1"] ;
139 -> 140 ;
141 [label="mse = 0.0\nsamples = 1\nvalue = 3.0"] ;
139 -> 141 ;
142 [label="mse = -0.0\nsamples = 1\nvalue = 3.0"] ;
138 -> 142 ;
143 [label="mse = -0.0\nsamples = 1\nvalue = 3.1"] ;
137 -> 143 ;
144 [label="rel#count <= 1.0\nmse = 0.0\nsamples = 6\nvalue = 3.0"] ;
136 -> 144 ;
145 [label="mse = 0.0\nsamples = 1\nvalue = 3.1"] ;
144 -> 145 ;
146 [label="http://dbpedia.org/ontology/elevation#1 <= 223.0\nmse = 0.0\nsamples = 5\nvalue = 3.0"] ;
144 -> 146 ;
147 [label="http://dbpedia.org/ontology/elevation#1 <= 175.5\nmse = 0.0\nsamples = 3\nvalue = 3.0"] ;
146 -> 147 ;
148 [label="mse = 0.0\nsamples = 1\nvalue = 3.0"] ;
147 -> 148 ;
149 [label="http://dbpedia.org/ontology/elevation#1 <= 201.5\nmse = 0.0\nsamples = 2\nvalue = 3.0"] ;
147 -> 149 ;
150 [label="mse = 0.0\nsamples = 1\nvalue = 3.0"] ;
149 -> 150 ;
151 [label="mse = 0.0\nsamples = 1\nvalue = 3.0"] ;
149 -> 151 ;
152 [label="http://dbpedia.org/ontology/elevation#1 <= 233.0\nmse = 0.0\nsamples = 2\nvalue = 3.1"] ;
146 -> 152 ;
153 [label="mse = 0.0\nsamples = 1\nvalue = 3.1"] ;
152 -> 153 ;
154 [label="mse = 0.0\nsamples = 1\nvalue = 3.0"] ;
152 -> 154 ;
155 [label="http://dbpedia.org/ontology/areaTotal#1 <= 4245000.0\nmse = 0.0\nsamples = 3\nvalue = 3.1"] ;
135 -> 155 ;
156 [label="mse = 0.0\nsamples = 1\nvalue = 3.0"] ;
155 -> 156 ;
157 [label="http://dbpedia.org/ontology/populationAsOf#1@"2006-12-31"^^<http://www.w3.org/2001/XMLSchema#date> <= 0.5\nmse = 0.0\nsamples = 2\nvalue = 3.1"] ;
155 -> 157 ;
158 [label="mse = 0.0\nsamples = 1\nvalue = 3.1"] ;
157 -> 158 ;
159 [label="mse = -0.0\nsamples = 1\nvalue = 3.1"] ;
157 -> 159 ;
160 [label="http://dbpedia.org/ontology/elevation#1 <= 260.5\nmse = 0.0\nsamples = 18\nvalue = 3.3"] ;
130 -> 160 ;
161 [label="http://dbpedia.org/ontology/areaTotal#1 <= 8375000.0\nmse = 0.0\nsamples = 17\nvalue = 3.2"] ;
160 -> 161 ;
162 [label="http://dbpedia.org/ontology/areaTotal#1 <= 8260000.0\nmse = 0.0\nsamples = 3\nvalue = 3.5"] ;
161 -> 162 ;
163 [label="http://dbpedia.org/ontology/district#count <= 0.2\nmse = 0.0\nsamples = 2\nvalue = 3.4"] ;
162 -> 163 ;
164 [label="mse = 0.0\nsamples = 1\nvalue = 3.5"] ;
163 -> 164 ;
165 [label="mse = 0.0\nsamples = 1\nvalue = 3.3"] ;
163 -> 165 ;
166 [label="mse = -0.0\nsamples = 1\nvalue = 3.7"] ;
162 -> 166 ;
167 [label="http://dbpedia.org/ontology/areaTotal#1 <= 8495000.0\nmse = 0.0\nsamples = 14\nvalue = 3.2"] ;
161 -> 167 ;
168 [label="mse = 0.0\nsamples = 1\nvalue = 3.0"] ;
167 -> 168 ;
169 [label="http://dbpedia.org/ontology/areaTotal#1 <= 10790000.0\nmse = 0.0\nsamples = 13\nvalue = 3.2"] ;
167 -> 169 ;
170 [label="http://dbpedia.org/ontology/elevation#1 <= 136.5\nmse = 0.0\nsamples = 12\nvalue = 3.2"] ;
169 -> 170 ;
171 [label="http://dbpedia.org/ontology/elevation#1 <= 79.5\nmse = 0.0\nsamples = 8\nvalue = 3.2"] ;
170 -> 171 ;
172 [label="http://dbpedia.org/ontology/areaTotal#1 <= 9575000.0\nmse = 0.0\nsamples = 2\nvalue = 3.2"] ;
171 -> 172 ;
173 [label="mse = 0.0\nsamples = 1\nvalue = 3.3"] ;
172 -> 173 ;
174 [label="mse = -0.0\nsamples = 1\nvalue = 3.1"] ;
172 -> 174 ;
175 [label="http://dbpedia.org/ontology/areaTotal#1 <= 9850000.0\nmse = 0.0\nsamples = 6\nvalue = 3.2"] ;
171 -> 175 ;
176 [label="http://dbpedia.org/ontology/elevation#1 <= 97.0\nmse = 0.0\nsamples = 3\nvalue = 3.1"] ;
175 -> 176 ;
177 [label="mse = 0.0\nsamples = 1\nvalue = 3.1"] ;
176 -> 177 ;
178 [label="http://dbpedia.org/ontology/elevation#1 <= 100.5\nmse = 0.0\nsamples = 2\nvalue = 3.1"] ;
176 -> 178 ;
179 [label="mse = 0.0\nsamples = 1\nvalue = 3.2"] ;
178 -> 179 ;
180 [label="mse = -0.0\nsamples = 1\nvalue = 3.1"] ;
178 -> 180 ;
181 [label="http://dbpedia.org/ontology/areaTotal#1 <= 10065000.0\nmse = 0.0\nsamples = 3\nvalue = 3.2"] ;
175 -> 181 ;
182 [label="mse = 0.0\nsamples = 1\nvalue = 3.2"] ;
181 -> 182 ;
183 [label="http://dbpedia.org/ontology/district#count <= 0.2\nmse = 0.0\nsamples = 2\nvalue = 3.1"] ;
181 -> 183 ;
184 [label="mse = 0.0\nsamples = 1\nvalue = 3.2"] ;
183 -> 184 ;
185 [label="mse = -0.0\nsamples = 1\nvalue = 3.1"] ;
183 -> 185 ;
186 [label="http://dbpedia.org/ontology/elevation#1 <= 218.0\nmse = 0.0\nsamples = 4\nvalue = 3.3"] ;
170 -> 186 ;
187 [label="http://dbpedia.org/ontology/district#count <= 0.2\nmse = 0.0\nsamples = 2\nvalue = 3.4"] ;
186 -> 187 ;
188 [label="mse = 0.0\nsamples = 1\nvalue = 3.4"] ;
187 -> 188 ;
189 [label="mse = -0.0\nsamples = 1\nvalue = 3.4"] ;
187 -> 189 ;
190 [label="http://dbpedia.org/ontology/district#count <= 0.2\nmse = 0.0\nsamples = 2\nvalue = 3.2"] ;
186 -> 190 ;
191 [label="mse = 0.0\nsamples = 1\nvalue = 3.2"] ;
190 -> 191 ;
192 [label="mse = -0.0\nsamples = 1\nvalue = 3.1"] ;
190 -> 192 ;
193 [label="mse = 0.0\nsamples = 1\nvalue = 3.0"] ;
169 -> 193 ;
194 [label="mse = 0.0\nsamples = 1\nvalue = 4.0"] ;
160 -> 194 ;
195 [label="http://dbpedia.org/ontology/areaTotal#1 <= 9150000.0\nmse = 0.1\nsamples = 66\nvalue = 3.3"] ;
103 -> 195 ;
196 [label="http://dbpedia.org/ontology/areaTotal#1 <= 8245000.0\nmse = 0.1\nsamples = 48\nvalue = 3.3"] ;
195 -> 196 ;
197 [label="http://dbpedia.org/ontology/elevation#1 <= 28.5\nmse = 0.0\nsamples = 39\nvalue = 3.3"] ;
196 -> 197 ;
198 [label="http://dbpedia.org/ontology/areaTotal#1 <= 5360000.0\nmse = 0.1\nsamples = 4\nvalue = 3.7"] ;
197 -> 198 ;
199 [label="mse = 0.0\nsamples = 1\nvalue = 4.1"] ;
198 -> 199 ;
200 [label="http://dbpedia.org/ontology/areaTotal#1 <= 6230000.0\nmse = 0.0\nsamples = 3\nvalue = 3.6"] ;
198 -> 200 ;
201 [label="mse = 0.0\nsamples = 1\nvalue = 3.4"] ;
200 -> 201 ;
202 [label="rel#count <= 1.1\nmse = 0.0\nsamples = 2\nvalue = 3.7"] ;
200 -> 202 ;
203 [label="mse = 0.0\nsamples = 1\nvalue = 3.8"] ;
202 -> 203 ;
204 [label="mse = 0.0\nsamples = 1\nvalue = 3.6"] ;
202 -> 204 ;
205 [label="http://dbpedia.org/ontology/elevation#1 <= 120.5\nmse = 0.0\nsamples = 35\nvalue = 3.3"] ;
197 -> 205 ;
206 [label="http://dbpedia.org/ontology/elevation#1 <= 50.0\nmse = 0.0\nsamples = 13\nvalue = 3.2"] ;
205 -> 206 ;
207 [label="http://dbpedia.org/ontology/areaTotal#1 <= 6090000.0\nmse = 0.0\nsamples = 5\nvalue = 3.2"] ;
206 -> 207 ;
208 [label="mse = 0.0\nsamples = 1\nvalue = 3.5"] ;
207 -> 208 ;
209 [label="http://dbpedia.org/ontology/elevation#1 <= 38.5\nmse = 0.0\nsamples = 4\nvalue = 3.2"] ;
207 -> 209 ;
210 [label="http://dbpedia.org/ontology/district#count <= 0.2\nmse = 0.0\nsamples = 2\nvalue = 3.0"] ;
209 -> 210 ;
211 [label="mse = 0.0\nsamples = 1\nvalue = 3.0"] ;
210 -> 211 ;
212 [label="mse = -0.0\nsamples = 1\nvalue = 3.1"] ;
210 -> 212 ;
213 [label="http://dbpedia.org/ontology/elevation#1 <= 47.5\nmse = 0.0\nsamples = 2\nvalue = 3.3"] ;
209 -> 213 ;
214 [label="mse = 0.0\nsamples = 1\nvalue = 3.5"] ;
213 -> 214 ;
215 [label="mse = 0.0\nsamples = 1\nvalue = 3.2"] ;
213 -> 215 ;
216 [label="rel#count <= 1.1\nmse = 0.0\nsamples = 8\nvalue = 3.1"] ;
206 -> 216 ;
217 [label="http://dbpedia.org/ontology/leaderTitle#count <= 0.2\nmse = 0.0\nsamples = 6\nvalue = 3.1"] ;
216 -> 217 ;
218 [label="http://dbpedia.org/ontology/areaTotal#1 <= 4125000.0\nmse = 0.0\nsamples = 5\nvalue = 3.1"] ;
217 -> 218 ;
219 [label="mse = 0.0\nsamples = 1\nvalue = 3.1"] ;
218 -> 219 ;
220 [label="http://dbpedia.org/ontology/elevation#1 <= 61.0\nmse = 0.0\nsamples = 4\nvalue = 3.1"] ;
218 -> 220 ;
221 [label="http://dbpedia.org/ontology/nearestCity?inv#count <= 0.2\nmse = 0.0\nsamples = 2\nvalue = 3.1"] ;
220 -> 221 ;
222 [label="mse = 0.0\nsamples = 1\nvalue = 3.1"] ;
221 -> 222 ;
223 [label="mse = -0.0\nsamples = 1\nvalue = 3.1"] ;
221 -> 223 ;
224 [label="http://dbpedia.org/ontology/areaTotal#1 <= 6475000.0\nmse = 0.0\nsamples = 2\nvalue = 3.2"] ;
220 -> 224 ;
225 [label="mse = 0.0\nsamples = 1\nvalue = 3.2"] ;
224 -> 225 ;
226 [label="mse = -0.0\nsamples = 1\nvalue = 3.1"] ;
224 -> 226 ;
227 [label="mse = -0.0\nsamples = 1\nvalue = 3.3"] ;
217 -> 227 ;
228 [label="http://dbpedia.org/ontology/elevation#1 <= 107.5\nmse = 0.0\nsamples = 2\nvalue = 3.0"] ;
216 -> 228 ;
229 [label="mse = 0.0\nsamples = 1\nvalue = 3.0"] ;
228 -> 229 ;
230 [label="mse = -0.0\nsamples = 1\nvalue = 3.1"] ;
228 -> 230 ;
231 [label="http://dbpedia.org/ontology/populationAsOf#1@"2008-12-31"^^<http://www.w3.org/2001/XMLSchema#date> <= 0.5\nmse = 0.0\nsamples = 22\nvalue = 3.3"] ;
205 -> 231 ;
232 [label="http://dbpedia.org/ontology/areaTotal#1 <= 7915000.0\nmse = 0.0\nsamples = 21\nvalue = 3.3"] ;
231 -> 232 ;
233 [label="http://dbpedia.org/ontology/elevation#1 <= 186.5\nmse = 0.0\nsamples = 18\nvalue = 3.3"] ;
232 -> 233 ;
234 [label="http://dbpedia.org/ontology/elevation#1 <= 128.0\nmse = 0.0\nsamples = 7\nvalue = 3.4"] ;
233 -> 234 ;
235 [label="mse = 0.0\nsamples = 1\nvalue = 3.3"] ;
234 -> 235 ;
236 [label="http://dbpedia.org/ontology/elevation#1 <= 181.0\nmse = 0.0\nsamples = 6\nvalue = 3.4"] ;
234 -> 236 ;
237 [label="http://dbpedia.org/ontology/elevation#1 <= 170.0\nmse = 0.0\nsamples = 4\nvalue = 3.4"] ;
236 -> 237 ;
238 [label="http://dbpedia.org/ontology/areaTotal#1 <= 5625000.0\nmse = 0.0\nsamples = 3\nvalue = 3.5"] ;
237 -> 238 ;
239 [label="http://dbpedia.org/ontology/elevation#1 <= 146.5\nmse = 0.0\nsamples = 2\nvalue = 3.5"] ;
238 -> 239 ;
240 [label="mse = 0.0\nsamples = 1\nvalue = 3.5"] ;
239 -> 240 ;
241 [label="mse = -0.0\nsamples = 1\nvalue = 3.5"] ;
239 -> 241 ;
242 [label="mse = -0.0\nsamples = 1\nvalue = 3.3"] ;
238 -> 242 ;
243 [label="mse = 0.0\nsamples = 1\nvalue = 3.3"] ;
237 -> 243 ;
244 [label="http://dbpedia.org/ontology/elevation#1 <= 182.5\nmse = 0.0\nsamples = 2\nvalue = 3.5"] ;
236 -> 244 ;
245 [label="mse = 0.0\nsamples = 1\nvalue = 3.5"] ;
244 -> 245 ;
246 [label="mse = 0.0\nsamples = 1\nvalue = 3.5"] ;
244 -> 246 ;
247 [label="http://dbpedia.org/ontology/elevation#1 <= 208.0\nmse = 0.0\nsamples = 11\nvalue = 3.3"] ;
233 -> 247 ;
248 [label="http://dbpedia.org/ontology/elevation#1 <= 196.0\nmse = 0.0\nsamples = 2\nvalue = 3.0"] ;
247 -> 248 ;
249 [label="mse = 0.0\nsamples = 1\nvalue = 3.0"] ;
248 -> 249 ;
250 [label="mse = -0.0\nsamples = 1\nvalue = 3.0"] ;
248 -> 250 ;
251 [label="http://dbpedia.org/ontology/elevation#1 <= 228.5\nmse = 0.0\nsamples = 9\nvalue = 3.4"] ;
247 -> 251 ;
252 [label="http://dbpedia.org/ontology/elevation#1 <= 217.0\nmse = 0.0\nsamples = 2\nvalue = 3.5"] ;
251 -> 252 ;
253 [label="mse = 0.0\nsamples = 1\nvalue = 3.6"] ;
252 -> 253 ;
254 [label="mse = 0.0\nsamples = 1\nvalue = 3.5"] ;
252 -> 254 ;
255 [label="http://dbpedia.org/ontology/elevation#1 <= 243.5\nmse = 0.0\nsamples = 7\nvalue = 3.3"] ;
251 -> 255 ;
256 [label="mse = 0.0\nsamples = 1\nvalue = 3.1"] ;
255 -> 256 ;
257 [label="http://dbpedia.org/ontology/areaTotal#1 <= 7190000.0\nmse = 0.0\nsamples = 6\nvalue = 3.4"] ;
255 -> 257 ;
258 [label="http://dbpedia.org/ontology/areaTotal#1 <= 6355000.0\nmse = 0.0\nsamples = 5\nvalue = 3.4"] ;
257 -> 258 ;
259 [label="http://dbpedia.org/ontology/leaderTitle#count <= 0.2\nmse = 0.0\nsamples = 3\nvalue = 3.4"] ;
258 -> 259 ;
260 [label="http://dbpedia.org/ontology/elevation#1 <= 274.5\nmse = 0.0\nsamples = 2\nvalue = 3.4"] ;
259 -> 260 ;
261 [label="mse = 0.0\nsamples = 1\nvalue = 3.4"] ;
260 -> 261 ;
262 [label="mse = -0.0\nsamples = 1\nvalue = 3.5"] ;
260 -> 262 ;
263 [label="mse = 0.0\nsamples = 1\nvalue = 3.4"] ;
259 -> 263 ;
264 [label="http://dbpedia.org/ontology/elevation#1 <= 255.0\nmse = 0.0\nsamples = 2\nvalue = 3.4"] ;
258 -> 264 ;
265 [label="mse = 0.0\nsamples = 1\nvalue = 3.4"] ;
264 -> 265 ;
266 [label="mse = 0.0\nsamples = 1\nvalue = 3.4"] ;
264 -> 266 ;
267 [label="mse = 0.0\nsamples = 1\nvalue = 3.2"] ;
257 -> 267 ;
268 [label="http://dbpedia.org/ontology/areaTotal#1 <= 7965000.0\nmse = 0.0\nsamples = 3\nvalue = 3.2"] ;
232 -> 268 ;
269 [label="mse = 0.0\nsamples = 1\nvalue = 3.0"] ;
268 -> 269 ;
270 [label="http://dbpedia.org/ontology/leaderTitle#count <= 0.2\nmse = 0.0\nsamples = 2\nvalue = 3.3"] ;
268 -> 270 ;
271 [label="mse = 0.0\nsamples = 1\nvalue = 3.3"] ;
270 -> 271 ;
272 [label="mse = 0.0\nsamples = 1\nvalue = 3.3"] ;
270 -> 272 ;
273 [label="mse = -0.0\nsamples = 1\nvalue = 3.1"] ;
231 -> 273 ;
274 [label="http://dbpedia.org/ontology/elevation#1 <= 231.0\nmse = 0.1\nsamples = 9\nvalue = 3.6"] ;
196 -> 274 ;
275 [label="http://dbpedia.org/ontology/leaderTitle#count <= 0.2\nmse = 0.0\nsamples = 8\nvalue = 3.6"] ;
274 -> 275 ;
276 [label="http://dbpedia.org/ontology/areaTotal#1 <= 8910000.0\nmse = 0.0\nsamples = 6\nvalue = 3.7"] ;
275 -> 276 ;
277 [label="http://dbpedia.org/ontology/areaTotal#1 <= 8685000.0\nmse = 0.0\nsamples = 5\nvalue = 3.7"] ;
276 -> 277 ;
278 [label="http://dbpedia.org/ontology/elevation#1 <= 195.0\nmse = 0.0\nsamples = 4\nvalue = 3.7"] ;
277 -> 278 ;
279 [label="http://dbpedia.org/ontology/areaTotal#1 <= 8400000.0\nmse = 0.0\nsamples = 3\nvalue = 3.7"] ;
278 -> 279 ;
280 [label="mse = 0.0\nsamples = 1\nvalue = 3.7"] ;
279 -> 280 ;
281 [label="http://dbpedia.org/ontology/areaTotal#1 <= 8580000.0\nmse = 0.0\nsamples = 2\nvalue = 3.7"] ;
279 -> 281 ;
282 [label="mse = 0.0\nsamples = 1\nvalue = 3.7"] ;
281 -> 282 ;
283 [label="mse = 0.0\nsamples = 1\nvalue = 3.7"] ;
281 -> 283 ;
284 [label="mse = -0.0\nsamples = 1\nvalue = 3.8"] ;
278 -> 284 ;
285 [label="mse = 0.0\nsamples = 1\nvalue = 3.4"] ;
277 -> 285 ;
286 [label="mse = -0.0\nsamples = 1\nvalue = 3.9"] ;
276 -> 286 ;
287 [label="http://dbpedia.org/ontology/elevation#1 <= 69.5\nmse = 0.0\nsamples = 2\nvalue = 3.3"] ;
275 -> 287 ;
288 [label="mse = 0.0\nsamples = 1\nvalue = 3.2"] ;
287 -> 288 ;
289 [label="mse = -0.0\nsamples = 1\nvalue = 3.4"] ;
287 -> 289 ;
290 [label="mse = -0.0\nsamples = 1\nvalue = 3.1"] ;
274 -> 290 ;
291 [label="http://dbpedia.org/ontology/areaTotal#1 <= 10600000.0\nmse = 0.0\nsamples = 18\nvalue = 3.2"] ;
195 -> 291 ;
292 [label="http://dbpedia.org/ontology/areaTotal#1 <= 10545000.0\nmse = 0.0\nsamples = 14\nvalue = 3.2"] ;
291 -> 292 ;
293 [label="http://dbpedia.org/ontology/areaTotal#1 <= 10505000.0\nmse = 0.0\nsamples = 13\nvalue = 3.2"] ;
292 -> 293 ;
294 [label="http://dbpedia.org/ontology/areaTotal#1 <= 9965000.0\nmse = 0.0\nsamples = 12\nvalue = 3.2"] ;
293 -> 294 ;
295 [label="http://dbpedia.org/ontology/areaTotal#1 <= 9640000.0\nmse = 0.0\nsamples = 7\nvalue = 3.2"] ;
294 -> 295 ;
296 [label="http://dbpedia.org/ontology/populationAsOf#1@"2009-12-31"^^<http://www.w3.org/2001/XMLSchema#date> <= 0.5\nmse = 0.0\nsamples = 6\nvalue = 3.2"] ;
295 -> 296 ;
297 [label="http://dbpedia.org/ontology/elevation#1 <= 61.5\nmse = 0.0\nsamples = 5\nvalue = 3.2"] ;
296 -> 297 ;
298 [label="http://dbpedia.org/ontology/elevation#1 <= 5.5\nmse = 0.0\nsamples = 2\nvalue = 3.2"] ;
297 -> 298 ;
299 [label="mse = 0.0\nsamples = 1\nvalue = 3.2"] ;
298 -> 299 ;
300 [label="mse = 0.0\nsamples = 1\nvalue = 3.1"] ;
298 -> 300 ;
301 [label="http://dbpedia.org/ontology/elevation#1 <= 142.5\nmse = 0.0\nsamples = 3\nvalue = 3.2"] ;
297 -> 301 ;
302 [label="mse = 0.0\nsamples = 1\nvalue = 3.2"] ;
301 -> 302 ;
303 [label="http://dbpedia.org/ontology/residence?inv#count <= 0.2\nmse = 0.0\nsamples = 2\nvalue = 3.2"] ;
301 -> 303 ;
304 [label="mse = 0.0\nsamples = 1\nvalue = 3.2"] ;
303 -> 304 ;
305 [label="mse = 0.0\nsamples = 1\nvalue = 3.2"] ;
303 -> 305 ;
306 [label="mse = -0.0\nsamples = 1\nvalue = 3.1"] ;
296 -> 306 ;
307 [label="mse = -0.0\nsamples = 1\nvalue = 3.0"] ;
295 -> 307 ;
308 [label="http://dbpedia.org/ontology/elevation#1 <= 10.0\nmse = 0.0\nsamples = 5\nvalue = 3.3"] ;
294 -> 308 ;
309 [label="mse = 0.0\nsamples = 1\nvalue = 3.4"] ;
308 -> 309 ;
310 [label="http://dbpedia.org/ontology/elevation#1 <= 29.5\nmse = 0.0\nsamples = 4\nvalue = 3.2"] ;
308 -> 310 ;
311 [label="mse = -0.0\nsamples = 1\nvalue = 3.2"] ;
310 -> 311 ;
312 [label="http://dbpedia.org/ontology/elevation#1 <= 131.0\nmse = 0.0\nsamples = 3\nvalue = 3.2"] ;
310 -> 312 ;
313 [label="mse = 0.0\nsamples = 1\nvalue = 3.3"] ;
312 -> 313 ;
314 [label="http://dbpedia.org/ontology/elevation#1 <= 243.0\nmse = 0.0\nsamples = 2\nvalue = 3.2"] ;
312 -> 314 ;
315 [label="mse = 0.0\nsamples = 1\nvalue = 3.2"] ;
314 -> 315 ;
316 [label="mse = -0.0\nsamples = 1\nvalue = 3.2"] ;
314 -> 316 ;
317 [label="mse = -0.0\nsamples = 1\nvalue = 3.5"] ;
293 -> 317 ;
318 [label="mse = 0.0\nsamples = 1\nvalue = 3.0"] ;
292 -> 318 ;
319 [label="http://dbpedia.org/ontology/areaTotal#1 <= 10720000.0\nmse = 0.0\nsamples = 4\nvalue = 3.3"] ;
291 -> 319 ;
320 [label="http://dbpedia.org/ontology/elevation#1 <= 148.5\nmse = 0.0\nsamples = 2\nvalue = 3.5"] ;
319 -> 320 ;
321 [label="mse = 0.0\nsamples = 1\nvalue = 3.5"] ;
320 -> 321 ;
322 [label="mse = 0.0\nsamples = 1\nvalue = 3.5"] ;
320 -> 322 ;
323 [label="http://dbpedia.org/ontology/areaTotal#1 <= 10815000.0\nmse = 0.0\nsamples = 2\nvalue = 3.1"] ;
319 -> 323 ;
324 [label="mse = 0.0\nsamples = 1\nvalue = 3.2"] ;
323 -> 324 ;
325 [label="mse = 0.0\nsamples = 1\nvalue = 3.1"] ;
323 -> 325 ;
326 [label="http://dbpedia.org/ontology/areaTotal#1 <= 11015000.0\nmse = 0.0\nsamples = 6\nvalue = 3.4"] ;
102 -> 326 ;
327 [label="mse = 0.0\nsamples = 1\nvalue = 3.7"] ;
326 -> 327 ;
328 [label="http://dbpedia.org/ontology/elevation#1 <= 81.0\nmse = 0.0\nsamples = 5\nvalue = 3.4"] ;
326 -> 328 ;
329 [label="http://dbpedia.org/ontology/areaTotal#1 <= 11205000.0\nmse = 0.0\nsamples = 2\nvalue = 3.2"] ;
328 -> 329 ;
330 [label="mse = 0.0\nsamples = 1\nvalue = 3.3"] ;
329 -> 330 ;
331 [label="mse = 0.0\nsamples = 1\nvalue = 3.2"] ;
329 -> 331 ;
332 [label="http://dbpedia.org/ontology/areaTotal#1 <= 11330000.0\nmse = 0.0\nsamples = 3\nvalue = 3.4"] ;
328 -> 332 ;
333 [label="rel#count <= 1.0\nmse = 0.0\nsamples = 2\nvalue = 3.4"] ;
332 -> 333 ;
334 [label="mse = 0.0\nsamples = 1\nvalue = 3.3"] ;
333 -> 334 ;
335 [label="mse = 0.0\nsamples = 1\nvalue = 3.4"] ;
333 -> 335 ;
336 [label="mse = -0.0\nsamples = 1\nvalue = 3.5"] ;
332 -> 336 ;
337 [label="http://dbpedia.org/ontology/elevation#1 <= 40.5\nmse = 0.0\nsamples = 7\nvalue = 3.1"] ;
101 -> 337 ;
338 [label="http://dbpedia.org/ontology/areaTotal#1 <= 11535000.0\nmse = 0.0\nsamples = 2\nvalue = 3.2"] ;
337 -> 338 ;
339 [label="mse = 0.0\nsamples = 1\nvalue = 3.3"] ;
338 -> 339 ;
340 [label="mse = -0.0\nsamples = 1\nvalue = 3.1"] ;
338 -> 340 ;
341 [label="http://dbpedia.org/ontology/district#count <= 0.2\nmse = 0.0\nsamples = 5\nvalue = 3.1"] ;
337 -> 341 ;
342 [label="mse = 0.0\nsamples = 1\nvalue = 3.3"] ;
341 -> 342 ;
343 [label="http://dbpedia.org/ontology/areaTotal#1 <= 11630000.0\nmse = 0.0\nsamples = 4\nvalue = 3.1"] ;
341 -> 343 ;
344 [label="http://dbpedia.org/ontology/areaTotal#1 <= 11410000.0\nmse = 0.0\nsamples = 2\nvalue = 3.0"] ;
343 -> 344 ;
345 [label="mse = 0.0\nsamples = 1\nvalue = 3.0"] ;
344 -> 345 ;
346 [label="mse = 0.0\nsamples = 1\nvalue = 3.0"] ;
344 -> 346 ;
347 [label="http://dbpedia.org/ontology/populationAsOf#1@"2006-12-31"^^<http://www.w3.org/2001/XMLSchema#date> <= 0.5\nmse = 0.0\nsamples = 2\nvalue = 3.1"] ;
343 -> 347 ;
348 [label="mse = 0.0\nsamples = 1\nvalue = 3.1"] ;
347 -> 348 ;
349 [label="mse = -0.0\nsamples = 1\nvalue = 3.1"] ;
347 -> 349 ;
350 [label="mse = 0.0\nsamples = 1\nvalue = 4.0"] ;
100 -> 350 ;
351 [label="mse = -0.0\nsamples = 1\nvalue = 3.8"] ;
99 -> 351 ;
352 [label="http://dbpedia.org/ontology/areaTotal#1 <= 3114500.0\nmse = 0.1\nsamples = 70\nvalue = 3.5"] ;
98 -> 352 ;
353 [label="http://dbpedia.org/ontology/populationDensity#1 <= 1255.0\nmse = 0.0\nsamples = 32\nvalue = 3.4"] ;
352 -> 353 ;
354 [label="http://dbpedia.org/ontology/country#1@<http://dbpedia.org/resource/Germany> <= 0.5\nmse = 0.0\nsamples = 25\nvalue = 3.3"] ;
353 -> 354 ;
355 [label="http://dbpedia.org/ontology/populationDensity#1 <= 868.0\nmse = 0.0\nsamples = 23\nvalue = 3.3"] ;
354 -> 355 ;
356 [label="http://xmlns.com/foaf/0.1/name#count <= 0.5\nmse = 0.0\nsamples = 16\nvalue = 3.2"] ;
355 -> 356 ;
357 [label="http://dbpedia.org/ontology/populationDensity#1 <= 552.0\nmse = 0.0\nsamples = 15\nvalue = 3.2"] ;
356 -> 357 ;
358 [label="http://dbpedia.org/ontology/country#1@<http://dbpedia.org/resource/Austria> <= 0.5\nmse = 0.0\nsamples = 4\nvalue = 3.1"] ;
357 -> 358 ;
359 [label="http://dbpedia.org/ontology/areaTotal#1 <= 2480000.0\nmse = 0.0\nsamples = 3\nvalue = 3.1"] ;
358 -> 359 ;
360 [label="mse = 0.0\nsamples = 1\nvalue = 3.1"] ;
359 -> 360 ;
361 [label="http://dbpedia.org/ontology/country#1@<http://dbpedia.org/resource/Switzerland> <= 0.5\nmse = 0.0\nsamples = 2\nvalue = 3.1"] ;
359 -> 361 ;
362 [label="mse = 0.0\nsamples = 1\nvalue = 3.1"] ;
361 -> 362 ;
363 [label="mse = -0.0\nsamples = 1\nvalue = 3.1"] ;
361 -> 363 ;
364 [label="mse = -0.0\nsamples = 1\nvalue = 3.0"] ;
358 -> 364 ;
365 [label="http://dbpedia.org/ontology/nearestCity?inv#count <= 0.2\nmse = 0.0\nsamples = 11\nvalue = 3.2"] ;
357 -> 365 ;
366 [label="http://dbpedia.org/ontology/areaTotal#1 <= 2810000.0\nmse = 0.0\nsamples = 10\nvalue = 3.2"] ;
365 -> 366 ;
367 [label="http://dbpedia.org/ontology/populationDensity#1 <= 780.5\nmse = 0.0\nsamples = 8\nvalue = 3.2"] ;
366 -> 367 ;
368 [label="http://dbpedia.org/ontology/areaTotal#1 <= 2610000.0\nmse = 0.0\nsamples = 6\nvalue = 3.2"] ;
367 -> 368 ;
369 [label="http://dbpedia.org/ontology/populationDensity#1 <= 751.0\nmse = 0.0\nsamples = 5\nvalue = 3.2"] ;
368 -> 369 ;
370 [label="http://dbpedia.org/ontology/populationDensity#1 <= 735.0\nmse = 0.0\nsamples = 4\nvalue = 3.2"] ;
369 -> 370 ;
371 [label="http://dbpedia.org/ontology/deathPlace?inv#count <= 0.2\nmse = 0.0\nsamples = 3\nvalue = 3.2"] ;
370 -> 371 ;
372 [label="mse = 0.0\nsamples = 2\nvalue = 3.2"] ;
371 -> 372 ;
373 [label="mse = -0.0\nsamples = 1\nvalue = 3.2"] ;
371 -> 373 ;
374 [label="mse = 0.0\nsamples = 1\nvalue = 3.2"] ;
370 -> 374 ;
375 [label="mse = -0.0\nsamples = 1\nvalue = 3.2"] ;
369 -> 375 ;
376 [label="mse = 0.0\nsamples = 1\nvalue = 3.2"] ;
368 -> 376 ;
377 [label="http://dbpedia.org/ontology/areaTotal#1 <= 2120000.0\nmse = 0.0\nsamples = 2\nvalue = 3.2"] ;
367 -> 377 ;
378 [label="mse = 0.0\nsamples = 1\nvalue = 3.2"] ;
377 -> 378 ;
379 [label="mse = 0.0\nsamples = 1\nvalue = 3.3"] ;
377 -> 379 ;
380 [label="rel#count <= 1.2\nmse = 0.0\nsamples = 2\nvalue = 3.3"] ;
366 -> 380 ;
381 [label="mse = 0.0\nsamples = 1\nvalue = 3.4"] ;
380 -> 381 ;
382 [label="mse = 0.0\nsamples = 1\nvalue = 3.2"] ;
380 -> 382 ;
383 [label="mse = -0.0\nsamples = 1\nvalue = 3.1"] ;
365 -> 383 ;
384 [label="mse = 0.0\nsamples = 1\nvalue = 3.4"] ;
356 -> 384 ;
385 [label="http://dbpedia.org/ontology/areaTotal#1 <= 2365000.0\nmse = 0.0\nsamples = 7\nvalue = 3.4"] ;
355 -> 385 ;
386 [label="http://dbpedia.org/ontology/areaTotal#1 <= 2115000.0\nmse = 0.0\nsamples = 5\nvalue = 3.3"] ;
385 -> 386 ;
387 [label="http://dbpedia.org/ontology/populationDensity#1 <= 1120.0\nmse = 0.0\nsamples = 3\nvalue = 3.3"] ;
386 -> 387 ;
388 [label="http://dbpedia.org/ontology/populationDensity#1 <= 1064.0\nmse = 0.0\nsamples = 2\nvalue = 3.3"] ;
387 -> 388 ;
389 [label="mse = 0.0\nsamples = 1\nvalue = 3.3"] ;
388 -> 389 ;
390 [label="mse = 0.0\nsamples = 1\nvalue = 3.3"] ;
388 -> 390 ;
391 [label="mse = -0.0\nsamples = 1\nvalue = 3.3"] ;
387 -> 391 ;
392 [label="rel#count <= 1.2\nmse = 0.0\nsamples = 2\nvalue = 3.4"] ;
386 -> 392 ;
393 [label="mse = 0.0\nsamples = 1\nvalue = 3.4"] ;
392 -> 393 ;
394 [label="mse = 0.0\nsamples = 1\nvalue = 3.3"] ;
392 -> 394 ;
395 [label="http://dbpedia.org/ontology/areaTotal#1 <= 2540000.0\nmse = 0.0\nsamples = 2\nvalue = 3.4"] ;
385 -> 395 ;
396 [label="mse = 0.0\nsamples = 1\nvalue = 3.4"] ;
395 -> 396 ;
397 [label="mse = 0.0\nsamples = 1\nvalue = 3.5"] ;
395 -> 397 ;
398 [label="http://dbpedia.org/ontology/utcOffset#2@OTHER <= 0.5\nmse = 0.0\nsamples = 2\nvalue = 3.7"] ;
354 -> 398 ;
399 [label="mse = 0.0\nsamples = 1\nvalue = 3.7"] ;
398 -> 399 ;
400 [label="mse = -0.0\nsamples = 1\nvalue = 3.6"] ;
398 -> 400 ;
401 [label="http://dbpedia.org/ontology/areaTotal#1 <= 2915000.0\nmse = 0.0\nsamples = 7\nvalue = 3.6"] ;
353 -> 401 ;
402 [label="http://dbpedia.org/ontology/populationDensity#1 <= 1389.0\nmse = 0.0\nsamples = 5\nvalue = 3.6"] ;
401 -> 402 ;
403 [label="http://dbpedia.org/ontology/areaTotal#1 <= 2255000.0\nmse = 0.0\nsamples = 2\nvalue = 3.5"] ;
402 -> 403 ;
404 [label="mse = 0.0\nsamples = 1\nvalue = 3.4"] ;
403 -> 404 ;
405 [label="mse = -0.0\nsamples = 1\nvalue = 3.6"] ;
403 -> 405 ;
406 [label="http://dbpedia.org/ontology/areaTotal#1 <= 2425000.0\nmse = 0.0\nsamples = 3\nvalue = 3.6"] ;
402 -> 406 ;
407 [label="http://dbpedia.org/ontology/areaTotal#1 <= 1915000.0\nmse = 0.0\nsamples = 2\nvalue = 3.6"] ;
406 -> 407 ;
408 [label="mse = 0.0\nsamples = 1\nvalue = 3.6"] ;
407 -> 408 ;
409 [label="mse = 0.0\nsamples = 1\nvalue = 3.5"] ;
407 -> 409 ;
410 [label="mse = 0.0\nsamples = 1\nvalue = 3.6"] ;
406 -> 410 ;
411 [label="http://dbpedia.org/ontology/areaTotal#1 <= 3045000.0\nmse = 0.0\nsamples = 2\nvalue = 3.7"] ;
401 -> 411 ;
412 [label="mse = 0.0\nsamples = 1\nvalue = 3.8"] ;
411 -> 412 ;
413 [label="mse = 0.0\nsamples = 1\nvalue = 3.7"] ;
411 -> 413 ;
414 [label="http://dbpedia.org/ontology/elevation#1 <= 125.5\nmse = 0.1\nsamples = 38\nvalue = 3.6"] ;
352 -> 414 ;
415 [label="rel#count <= 1.0\nmse = 0.1\nsamples = 32\nvalue = 3.7"] ;
414 -> 415 ;
416 [label="http://dbpedia.org/ontology/populationAsOf#1@"2006-12-31"^^<http://www.w3.org/2001/XMLSchema#date> <= 0.5\nmse = 0.0\nsamples = 2\nvalue = 4.1"] ;
415 -> 416 ;
417 [label="mse = 0.0\nsamples = 1\nvalue = 4.1"] ;
416 -> 417 ;
418 [label="mse = -0.0\nsamples = 1\nvalue = 3.9"] ;
416 -> 418 ;
419 [label="http://dbpedia.org/ontology/areaTotal#1 <= 3124500.0\nmse = 0.0\nsamples = 30\nvalue = 3.6"] ;
415 -> 419 ;
420 [label="mse = 0.0\nsamples = 1\nvalue = 4.2"] ;
419 -> 420 ;
421 [label="http://dbpedia.org/ontology/populationDensity#1 <= 994.5\nmse = 0.0\nsamples = 29\nvalue = 3.6"] ;
419 -> 421 ;
422 [label="http://dbpedia.org/ontology/areaTotal#1 <= 4619500.0\nmse = 0.0\nsamples = 19\nvalue = 3.6"] ;
421 -> 422 ;
423 [label="rel#count <= 1.2\nmse = 0.0\nsamples = 9\nvalue = 3.4"] ;
422 -> 423 ;
424 [label="http://dbpedia.org/ontology/populationDensity#1 <= 645.5\nmse = 0.0\nsamples = 7\nvalue = 3.3"] ;
423 -> 424 ;
425 [label="http://dbpedia.org/ontology/residence?inv#count <= 0.2\nmse = 0.0\nsamples = 3\nvalue = 3.3"] ;
424 -> 425 ;
426 [label="http://dbpedia.org/ontology/populationDensity#count <= 0.2\nmse = 0.0\nsamples = 2\nvalue = 3.3"] ;
425 -> 426 ;
427 [label="mse = 0.0\nsamples = 1\nvalue = 3.3"] ;
426 -> 427 ;
428 [label="mse = 0.0\nsamples = 1\nvalue = 3.3"] ;
426 -> 428 ;
429 [label="mse = 0.0\nsamples = 1\nvalue = 3.2"] ;
425 -> 429 ;
430 [label="http://dbpedia.org/ontology/populationDensity#1 <= 694.0\nmse = 0.0\nsamples = 4\nvalue = 3.4"] ;
424 -> 430 ;
431 [label="mse = 0.0\nsamples = 1\nvalue = 3.4"] ;
430 -> 431 ;
432 [label="http://dbpedia.org/ontology/populationDensity#1 <= 726.5\nmse = 0.0\nsamples = 3\nvalue = 3.4"] ;
430 -> 432 ;
433 [label="mse = 0.0\nsamples = 1\nvalue = 3.4"] ;
432 -> 433 ;
434 [label="http://dbpedia.org/ontology/populationDensity#1 <= 796.5\nmse = 0.0\nsamples = 2\nvalue = 3.4"] ;
432 -> 434 ;
435 [label="mse = 0.0\nsamples = 1\nvalue = 3.4"] ;
434 -> 435 ;
436 [label="mse = 0.0\nsamples = 1\nvalue = 3.4"] ;
434 -> 436 ;
437 [label="http://dbpedia.org/ontology/areaTotal#count <= 0.4\nmse = 0.0\nsamples = 2\nvalue = 3.5"] ;
423 -> 437 ;
438 [label="mse = 0.0\nsamples = 1\nvalue = 3.5"] ;
437 -> 438 ;
439 [label="mse = -0.0\nsamples = 1\nvalue = 3.5"] ;
437 -> 439 ;
440 [label="http://dbpedia.org/ontology/postalCode#count <= 0.2\nmse = 0.0\nsamples = 10\nvalue = 3.7"] ;
422 -> 440 ;
441 [label="http://dbpedia.org/ontology/populationDensity#1 <= 833.0\nmse = 0.0\nsamples = 5\nvalue = 3.6"] ;
440 -> 441 ;
442 [label="http://dbpedia.org/ontology/populationDensity#1 <= 691.5\nmse = 0.0\nsamples = 3\nvalue = 3.6"] ;
441 -> 442 ;
443 [label="http://dbpedia.org/ontology/utcOffset#1@OTHER <= 0.5\nmse = 0.0\nsamples = 2\nvalue = 3.5"] ;
442 -> 443 ;
444 [label="mse = -0.0\nsamples = 1\nvalue = 3.6"] ;
443 -> 444 ;
445 [label="mse = 0.0\nsamples = 1\nvalue = 3.5"] ;
443 -> 445 ;
446 [label="mse = -0.0\nsamples = 1\nvalue = 3.6"] ;
442 -> 446 ;
447 [label="http://dbpedia.org/ontology/areaTotal#1 <= 4750000.0\nmse = 0.0\nsamples = 2\nvalue = 3.7"] ;
441 -> 447 ;
448 [label="mse = 0.0\nsamples = 1\nvalue = 3.7"] ;
447 -> 448 ;
449 [label="mse = -0.0\nsamples = 1\nvalue = 3.7"] ;
447 -> 449 ;
450 [label="http://dbpedia.org/ontology/populationAsOf#1@"2009-12-31"^^<http://www.w3.org/2001/XMLSchema#date> <= 0.5\nmse = 0.0\nsamples = 5\nvalue = 3.8"] ;
440 -> 450 ;
451 [label="http://dbpedia.org/ontology/populationAsOf#1@"2007-12-31"^^<http://www.w3.org/2001/XMLSchema#date> <= 0.5\nmse = 0.0\nsamples = 4\nvalue = 3.8"] ;
450 -> 451 ;
452 [label="http://dbpedia.org/ontology/populationAsOf#1@"2010-12-31"^^<http://www.w3.org/2001/XMLSchema#date> <= 0.5\nmse = 0.0\nsamples = 3\nvalue = 3.9"] ;
451 -> 452 ;
453 [label="http://xmlns.com/foaf/0.1/name#count <= 0.4\nmse = 0.0\nsamples = 2\nvalue = 3.9"] ;
452 -> 453 ;
454 [label="mse = 0.0\nsamples = 1\nvalue = 3.9"] ;
453 -> 454 ;
455 [label="mse = 0.0\nsamples = 1\nvalue = 3.9"] ;
453 -> 455 ;
456 [label="mse = 0.0\nsamples = 1\nvalue = 4.0"] ;
452 -> 456 ;
457 [label="mse = 0.0\nsamples = 1\nvalue = 3.7"] ;
451 -> 457 ;
458 [label="mse = -0.0\nsamples = 1\nvalue = 3.5"] ;
450 -> 458 ;
459 [label="http://dbpedia.org/ontology/areaTotal#1 <= 4535000.0\nmse = 0.0\nsamples = 10\nvalue = 3.8"] ;
421 -> 459 ;
460 [label="http://dbpedia.org/ontology/populationDensity#1 <= 1131.0\nmse = 0.0\nsamples = 7\nvalue = 3.7"] ;
459 -> 460 ;
461 [label="http://dbpedia.org/ontology/areaTotal#1 <= 3530000.0\nmse = 0.0\nsamples = 2\nvalue = 3.6"] ;
460 -> 461 ;
462 [label="mse = 0.0\nsamples = 1\nvalue = 3.6"] ;
461 -> 462 ;
463 [label="mse = -0.0\nsamples = 1\nvalue = 3.6"] ;
461 -> 463 ;
464 [label="http://dbpedia.org/ontology/populationDensity#1 <= 1578.0\nmse = 0.0\nsamples = 5\nvalue = 3.8"] ;
460 -> 464 ;
465 [label="http://dbpedia.org/ontology/populationDensity#1 <= 1278.5\nmse = 0.0\nsamples = 3\nvalue = 3.7"] ;
464 -> 465 ;
466 [label="mse = 0.0\nsamples = 1\nvalue = 3.7"] ;
465 -> 466 ;
467 [label="http://dbpedia.org/ontology/areaTotal#1 <= 3735000.0\nmse = 0.0\nsamples = 2\nvalue = 3.7"] ;
465 -> 467 ;
468 [label="mse = 0.0\nsamples = 1\nvalue = 3.7"] ;
467 -> 468 ;
469 [label="mse = -0.0\nsamples = 1\nvalue = 3.7"] ;
467 -> 469 ;
470 [label="http://dbpedia.org/ontology/populationDensity#1 <= 1677.5\nmse = 0.0\nsamples = 2\nvalue = 3.8"] ;
464 -> 470 ;
471 [label="mse = 0.0\nsamples = 1\nvalue = 3.8"] ;
470 -> 471 ;
472 [label="mse = 0.0\nsamples = 1\nvalue = 3.8"] ;
470 -> 472 ;
473 [label="http://dbpedia.org/ontology/city?inv#count <= 0.2\nmse = 0.0\nsamples = 3\nvalue = 3.9"] ;
459 -> 473 ;
474 [label="mse = 0.0\nsamples = 2\nvalue = 4.0"] ;
473 -> 474 ;
475 [label="mse = 0.0\nsamples = 1\nvalue = 3.7"] ;
473 -> 475 ;
476 [label="http://dbpedia.org/ontology/areaTotal#1 <= 3375000.0\nmse = 0.0\nsamples = 6\nvalue = 3.3"] ;
414 -> 476 ;
477 [label="mse = -0.0\nsamples = 1\nvalue = 3.6"] ;
476 -> 477 ;
478 [label="http://dbpedia.org/ontology/areaTotal#1 <= 7485000.0\nmse = 0.0\nsamples = 5\nvalue = 3.2"] ;
476 -> 478 ;
479 [label="http://dbpedia.org/ontology/areaTotal#1 <= 5560000.0\nmse = 0.0\nsamples = 3\nvalue = 3.1"] ;
478 -> 479 ;
480 [label="rel#count <= 1.1\nmse = 0.0\nsamples = 2\nvalue = 3.1"] ;
479 -> 480 ;
481 [label="mse = 0.0\nsamples = 1\nvalue = 3.2"] ;
480 -> 481 ;
482 [label="mse = -0.0\nsamples = 1\nvalue = 3.1"] ;
480 -> 482 ;
483 [label="mse = 0.0\nsamples = 1\nvalue = 3.0"] ;
479 -> 483 ;
484 [label="http://dbpedia.org/ontology/areaTotal#1 <= 9235000.0\nmse = 0.0\nsamples = 2\nvalue = 3.3"] ;
478 -> 484 ;
485 [label="mse = 0.0\nsamples = 1\nvalue = 3.3"] ;
484 -> 485 ;
486 [label="mse = 0.0\nsamples = 1\nvalue = 3.4"] ;
484 -> 486 ;
487 [label="http://dbpedia.org/ontology/country#1@<http://dbpedia.org/resource/Sweden> <= 0.5\nmse = 0.1\nsamples = 1987\nvalue = 3.4"] ;
19 -> 487 ;
488 [label="http://dbpedia.org/ontology/isPartOf#count <= 0.7\nmse = 0.1\nsamples = 1986\nvalue = 3.4"] ;
487 -> 488 ;
489 [label="http://dbpedia.org/ontology/hometown?inv#count <= 0.2\nmse = 0.1\nsamples = 1984\nvalue = 3.4"] ;
488 -> 489 ;
490 [label="http://dbpedia.org/ontology/country#1@<http://dbpedia.org/resource/Poland> <= 0.5\nmse = 0.1\nsamples = 1972\nvalue = 3.4"] ;
489 -> 490 ;
491 [label="http://dbpedia.org/ontology/area#1 <= 63240000.0\nmse = 0.1\nsamples = 1891\nvalue = 3.4"] ;
490 -> 491 ;
492 [label="http://dbpedia.org/ontology/department#1@<http://dbpedia.org/resource/Meurthe-et-Moselle> <= 0.5\nmse = 0.1\nsamples = 1864\nvalue = 3.4"] ;
491 -> 492 ;
493 [label="http://dbpedia.org/ontology/populationDensity#1 <= 1308.0\nmse = 0.1\nsamples = 1860\nvalue = 3.4"] ;
492 -> 493 ;
494 [label="http://dbpedia.org/ontology/populationDensity#1 <= 107.4\nmse = 0.1\nsamples = 1816\nvalue = 3.4"] ;
493 -> 494 ;
495 [label="http://dbpedia.org/ontology/country#1@<http://dbpedia.org/resource/United_Kingdom> <= 0.5\nmse = 0.1\nsamples = 1669\nvalue = 3.4"] ;
494 -> 495 ;
496 [label="http://dbpedia.org/ontology/location?inv#count <= 0.2\nmse = 0.1\nsamples = 1438\nvalue = 3.4"] ;
495 -> 496 ;
497 [label="http://dbpedia.org/ontology/maximumElevation#1 <= 99.5\nmse = 0.1\nsamples = 1346\nvalue = 3.4"] ;
496 -> 497 ;
498 [label="http://dbpedia.org/ontology/area#1 <= 2720000.0\nmse = 0.1\nsamples = 698\nvalue = 3.4"] ;
497 -> 498 ;
499 [label="rel#count <= 1.3\nmse = 0.1\nsamples = 387\nvalue = 3.4"] ;
498 -> 499 ;
500 [label="http://dbpedia.org/ontology/isPartOf#count <= 0.7\nmse = 0.1\nsamples = 353\nvalue = 3.4"] ;
499 -> 500 ;
501 [label="http://dbpedia.org/ontology/elevation#1 <= 8.1\nmse = 0.1\nsamples = 350\nvalue = 3.4"] ;
500 -> 501 ;
502 [label="http://dbpedia.org/ontology/areaCode#count <= 0.4\nmse = 0.1\nsamples = 135\nvalue = 3.3"] ;
501 -> 502 ;
503 [label="http://dbpedia.org/ontology/type#1@<http://dbpedia.org/resource/List_of_cities_in_Illinois> <= 0.5\nmse = 0.1\nsamples = 133\nvalue = 3.3"] ;
502 -> 503 ;
504 [label="http://dbpedia.org/ontology/region#1@<http://dbpedia.org/resource/Allegheny_County,_Pennsylvania> <= 0.5\nmse = 0.1\nsamples = 132\nvalue = 3.3"] ;
503 -> 504 ;
505 [label="http://dbpedia.org/ontology/type#1@<http://dbpedia.org/resource/Census-designated_place> <= 0.5\nmse = 0.0\nsamples = 131\nvalue = 3.3"] ;
504 -> 505 ;
506 [label="http://dbpedia.org/ontology/region#1@OTHER <= 0.5\nmse = 0.0\nsamples = 71\nvalue = 3.2"] ;
505 -> 506 ;
507 [label="http://dbpedia.org/ontology/region#1@<http://dbpedia.org/resource/Central_Bohemian_Region> <= 0.5\nmse = 0.0\nsamples = 40\nvalue = 3.3"] ;
506 -> 507 ;
508 [label="http://dbpedia.org/ontology/region#1@<http://dbpedia.org/resource/Veneto> <= 0.5\nmse = 0.0\nsamples = 39\nvalue = 3.3"] ;
507 -> 508 ;
509 [label="http://xmlns.com/foaf/0.1/nick#count <= 0.2\nmse = 0.0\nsamples = 36\nvalue = 3.3"] ;
508 -> 509 ;
510 [label="http://dbpedia.org/ontology/department#1@<http://dbpedia.org/resource/Val-d'Oise> <= 0.5\nmse = 0.0\nsamples = 35\nvalue = 3.3"] ;
509 -> 510 ;
511 [label="rel#count <= 1.0\nmse = 0.0\nsamples = 34\nvalue = 3.3"] ;
510 -> 511 ;
512 [label="http://dbpedia.org/ontology/region#1@<http://dbpedia.org/resource/Sicily> <= 0.5\nmse = 0.0\nsamples = 18\nvalue = 3.3"] ;
511 -> 512 ;
513 [label="http://dbpedia.org/ontology/areaTotal#1 <= 4500000.0\nmse = 0.0\nsamples = 17\nvalue = 3.3"] ;
512 -> 513 ;
514 [label="http://dbpedia.org/ontology/areaTotal#1 <= 2850000.0\nmse = 0.0\nsamples = 12\nvalue = 3.3"] ;
513 -> 514 ;
515 [label="http://dbpedia.org/ontology/timeZone#1@<http://dbpedia.org/resource/Central_European_Time> <= 0.5\nmse = 0.0\nsamples = 7\nvalue = 3.2"] ;
514 -> 515 ;
516 [label="http://dbpedia.org/ontology/region#1@<http://dbpedia.org/resource/Madison_County,_Illinois> <= 0.5\nmse = 0.0\nsamples = 5\nvalue = 3.2"] ;
515 -> 516 ;
517 [label="http://dbpedia.org/ontology/region#1@<http://dbpedia.org/resource/Lake_County,_Illinois> <= 0.5\nmse = 0.0\nsamples = 4\nvalue = 3.2"] ;
516 -> 517 ;
518 [label="http://dbpedia.org/ontology/areaTotal#count <= 0.2\nmse = 0.0\nsamples = 3\nvalue = 3.2"] ;
517 -> 518 ;
519 [label="mse = 0.0\nsamples = 2\nvalue = 3.2"] ;
518 -> 519 ;
520 [label="mse = 0.0\nsamples = 1\nvalue = 3.2"] ;
518 -> 520 ;
521 [label="mse = 0.0\nsamples = 1\nvalue = 3.2"] ;
517 -> 521 ;
522 [label="mse = -0.0\nsamples = 1\nvalue = 3.3"] ;
516 -> 522 ;
523 [label="http://dbpedia.org/ontology/region#1@<http://dbpedia.org/resource/Plze_Region> <= 0.5\nmse = 0.0\nsamples = 2\nvalue = 3.3"] ;
515 -> 523 ;
524 [label="mse = 0.0\nsamples = 1\nvalue = 3.3"] ;
523 -> 524 ;
525 [label="mse = -0.0\nsamples = 1\nvalue = 3.3"] ;
523 -> 525 ;
526 [label="http://dbpedia.org/ontology/areaTotal#1 <= 4150000.0\nmse = 0.0\nsamples = 5\nvalue = 3.4"] ;
514 -> 526 ;
527 [label="http://dbpedia.org/ontology/areaTotal#1 <= 3950000.0\nmse = 0.0\nsamples = 4\nvalue = 3.3"] ;
526 -> 527 ;
528 [label="http://dbpedia.org/ontology/areaTotal#1 <= 3550000.0\nmse = 0.0\nsamples = 3\nvalue = 3.4"] ;
527 -> 528 ;
529 [label="http://dbpedia.org/ontology/areaTotal#1 <= 3200000.0\nmse = 0.0\nsamples = 2\nvalue = 3.4"] ;
528 -> 529 ;
530 [label="mse = 0.0\nsamples = 1\nvalue = 3.4"] ;
529 -> 530 ;
531 [label="mse = 0.0\nsamples = 1\nvalue = 3.4"] ;
529 -> 531 ;
532 [label="mse = -0.0\nsamples = 1\nvalue = 3.5"] ;
528 -> 532 ;
533 [label="mse = -0.0\nsamples = 1\nvalue = 3.3"] ;
527 -> 533 ;
534 [label="mse = 0.0\nsamples = 1\nvalue = 3.6"] ;
526 -> 534 ;
535 [label="http://dbpedia.org/ontology/areaTotal#1 <= 7250000.0\nmse = 0.0\nsamples = 5\nvalue = 3.2"] ;
513 -> 535 ;
536 [label="http://dbpedia.org/ontology/region#1@<http://dbpedia.org/resource/Lombardy> <= 0.5\nmse = 0.0\nsamples = 2\nvalue = 3.0"] ;
535 -> 536 ;
537 [label="mse = 0.0\nsamples = 1\nvalue = 3.1"] ;
536 -> 537 ;
538 [label="mse = 0.0\nsamples = 1\nvalue = 3.0"] ;
536 -> 538 ;
539 [label="http://dbpedia.org/ontology/region#1@<http://dbpedia.org/resource/Lombardy> <= 0.5\nmse = 0.0\nsamples = 3\nvalue = 3.3"] ;
535 -> 539 ;
540 [label="http://dbpedia.org/ontology/region#1@<http://dbpedia.org/resource/Campania> <= 0.5\nmse = 0.0\nsamples = 2\nvalue = 3.2"] ;
539 -> 540 ;
541 [label="mse = 0.0\nsamples = 1\nvalue = 3.3"] ;
540 -> 541 ;
542 [label="mse = 0.0\nsamples = 1\nvalue = 3.2"] ;
540 -> 542 ;
543 [label="mse = 0.0\nsamples = 1\nvalue = 3.6"] ;
539 -> 543 ;
544 [label="mse = 0.0\nsamples = 1\nvalue = 3.4"] ;
512 -> 544 ;
545 [label="http://dbpedia.org/ontology/areaTotal#1 <= 7700000.0\nmse = 0.0\nsamples = 16\nvalue = 3.3"] ;
511 -> 545 ;
546 [label="http://dbpedia.org/ontology/areaTotal#1 <= 5350000.0\nmse = 0.0\nsamples = 13\nvalue = 3.4"] ;
545 -> 546 ;
547 [label="http://dbpedia.org/ontology/region#1@<http://dbpedia.org/resource/le-de-France_(region)> <= 0.5\nmse = 0.0\nsamples = 12\nvalue = 3.3"] ;
546 -> 547 ;
548 [label="rel#count <= 1.0\nmse = 0.0\nsamples = 11\nvalue = 3.3"] ;
547 -> 548 ;
549 [label="http://dbpedia.org/ontology/areaTotal#1 <= 3250000.0\nmse = 0.0\nsamples = 7\nvalue = 3.4"] ;
548 -> 549 ;
550 [label="http://dbpedia.org/ontology/areaTotal#1 <= 2450000.0\nmse = 0.0\nsamples = 5\nvalue = 3.4"] ;
549 -> 550 ;
551 [label="http://dbpedia.org/ontology/region#1@<http://dbpedia.org/resource/Lake_County,_Illinois> <= 0.5\nmse = 0.0\nsamples = 3\nvalue = 3.4"] ;
550 -> 551 ;
552 [label="http://dbpedia.org/ontology/country#1@<http://dbpedia.org/resource/United_States> <= 0.5\nmse = 0.0\nsamples = 2\nvalue = 3.3"] ;
551 -> 552 ;
553 [label="mse = 0.0\nsamples = 1\nvalue = 3.3"] ;
552 -> 553 ;
554 [label="mse = 0.0\nsamples = 1\nvalue = 3.4"] ;
552 -> 554 ;
555 [label="mse = -0.0\nsamples = 1\nvalue = 3.4"] ;
551 -> 555 ;
556 [label="http://dbpedia.org/ontology/areaTotal#1 <= 2950000.0\nmse = 0.0\nsamples = 2\nvalue = 3.5"] ;
550 -> 556 ;
557 [label="mse = 0.0\nsamples = 1\nvalue = 3.4"] ;
556 -> 557 ;
558 [label="mse = -0.0\nsamples = 1\nvalue = 3.5"] ;
556 -> 558 ;
559 [label="http://dbpedia.org/ontology/areaTotal#1 <= 4100000.0\nmse = 0.0\nsamples = 2\nvalue = 3.3"] ;
549 -> 559 ;
560 [label="mse = 0.0\nsamples = 1\nvalue = 3.2"] ;
559 -> 560 ;
561 [label="mse = 0.0\nsamples = 1\nvalue = 3.3"] ;
559 -> 561 ;
562 [label="http://dbpedia.org/ontology/type#count <= 0.2\nmse = 0.0\nsamples = 4\nvalue = 3.3"] ;
548 -> 562 ;
563 [label="http://dbpedia.org/ontology/elevation#count <= 0.2\nmse = 0.0\nsamples = 2\nvalue = 3.2"] ;
562 -> 563 ;
564 [label="mse = 0.0\nsamples = 1\nvalue = 3.2"] ;
563 -> 564 ;
565 [label="mse = 0.0\nsamples = 1\nvalue = 3.2"] ;
563 -> 565 ;
566 [label="http://dbpedia.org/ontology/motto#count <= 0.2\nmse = 0.0\nsamples = 2\nvalue = 3.3"] ;
562 -> 566 ;
567 [label="mse = 0.0\nsamples = 1\nvalue = 3.3"] ;
566 -> 567 ;
568 [label="mse = -0.0\nsamples = 1\nvalue = 3.3"] ;
566 -> 568 ;
569 [label="mse = -0.0\nsamples = 1\nvalue = 3.5"] ;
547 -> 569 ;
570 [label="mse = -0.0\nsamples = 1\nvalue = 3.6"] ;
546 -> 570 ;
571 [label="http://xmlns.com/foaf/0.1/homepage#count <= 0.2\nmse = 0.0\nsamples = 3\nvalue = 3.3"] ;
545 -> 571 ;
572 [label="mse = 0.0\nsamples = 1\nvalue = 3.3"] ;
571 -> 572 ;
573 [label="http://dbpedia.org/ontology/areaTotal#1 <= 10650000.0\nmse = 0.0\nsamples = 2\nvalue = 3.2"] ;
571 -> 573 ;
574 [label="mse = 0.0\nsamples = 1\nvalue = 3.3"] ;
573 -> 574 ;
575 [label="mse = -0.0\nsamples = 1\nvalue = 3.2"] ;
573 -> 575 ;
576 [label="mse = -0.0\nsamples = 1\nvalue = 3.0"] ;
510 -> 576 ;
577 [label="mse = -0.0\nsamples = 1\nvalue = 3.7"] ;
509 -> 577 ;
578 [label="http://xmlns.com/foaf/0.1/homepage#count <= 0.2\nmse = 0.0\nsamples = 3\nvalue = 3.6"] ;
508 -> 578 ;
579 [label="mse = 0.0\nsamples = 1\nvalue = 3.8"] ;
578 -> 579 ;
580 [label="http://dbpedia.org/ontology/areaTotal#1 <= 10850000.0\nmse = 0.0\nsamples = 2\nvalue = 3.5"] ;
578 -> 580 ;
581 [label="mse = 0.0\nsamples = 1\nvalue = 3.6"] ;
580 -> 581 ;
582 [label="mse = -0.0\nsamples = 1\nvalue = 3.4"] ;
580 -> 582 ;
583 [label="mse = 0.0\nsamples = 1\nvalue = 3.7"] ;
507 -> 583 ;
584 [label="http://www.w3.org/1999/02/22-rdf-syntax-ns#type#1@<http://dbpedia.org/ontology/City> <= 0.5\nmse = 0.0\nsamples = 31\nvalue = 3.2"] ;
506 -> 584 ;
585 [label="http://dbpedia.org/ontology/country#1@<http://dbpedia.org/resource/Hungary> <= 0.5\nmse = 0.0\nsamples = 29\nvalue = 3.1"] ;
584 -> 585 ;
586 [label="http://dbpedia.org/ontology/elevation#1 <= 5.0\nmse = 0.0\nsamples = 28\nvalue = 3.1"] ;
585 -> 586 ;
587 [label="http://dbpedia.org/ontology/country#1@<http://dbpedia.org/resource/Germany> <= 0.5\nmse = 0.0\nsamples = 26\nvalue = 3.1"] ;
586 -> 587 ;
588 [label="rel#count <= 0.9\nmse = 0.0\nsamples = 25\nvalue = 3.1"] ;
587 -> 588 ;
589 [label="http://xmlns.com/foaf/0.1/name#count <= 0.2\nmse = 0.0\nsamples = 4\nvalue = 3.0"] ;
588 -> 589 ;
590 [label="mse = 0.0\nsamples = 1\nvalue = 3.0"] ;
589 -> 590 ;
591 [label="http://dbpedia.org/ontology/isPartOf#count <= 0.2\nmse = 0.0\nsamples = 3\nvalue = 3.1"] ;
589 -> 591 ;
592 [label="http://dbpedia.org/ontology/area#1 <= 1035000.0\nmse = 0.0\nsamples = 2\nvalue = 3.1"] ;
591 -> 592 ;
593 [label="mse = 0.0\nsamples = 1\nvalue = 3.1"] ;
592 -> 593 ;
594 [label="mse = -0.0\nsamples = 1\nvalue = 3.1"] ;
592 -> 594 ;
595 [label="mse = 0.0\nsamples = 1\nvalue = 3.0"] ;
591 -> 595 ;
596 [label="rel#count <= 1.0\nmse = 0.0\nsamples = 21\nvalue = 3.1"] ;
588 -> 596 ;
597 [label="http://xmlns.com/foaf/0.1/homepage#count <= 0.2\nmse = 0.0\nsamples = 3\nvalue = 3.2"] ;
596 -> 597 ;
598 [label="mse = 0.0\nsamples = 1\nvalue = 3.5"] ;
597 -> 598 ;
599 [label="http://dbpedia.org/ontology/country#1@<http://dbpedia.org/resource/Czech_Republic> <= 0.5\nmse = 0.0\nsamples = 2\nvalue = 3.1"] ;
597 -> 599 ;
600 [label="mse = 0.0\nsamples = 1\nvalue = 3.1"] ;
599 -> 600 ;
601 [label="mse = 0.0\nsamples = 1\nvalue = 3.1"] ;
599 -> 601 ;
602 [label="http://dbpedia.org/ontology/city?inv#count <= 0.5\nmse = 0.0\nsamples = 18\nvalue = 3.1"] ;
596 -> 602 ;
603 [label="http://dbpedia.org/ontology/type#count <= 0.2\nmse = 0.0\nsamples = 17\nvalue = 3.1"] ;
602 -> 603 ;
604 [label="http://dbpedia.org/ontology/routeStart?inv#count <= 0.2\nmse = 0.0\nsamples = 6\nvalue = 3.1"] ;
603 -> 604 ;
605 [label="http://xmlns.com/foaf/0.1/homepage#count <= 0.2\nmse = 0.0\nsamples = 5\nvalue = 3.1"] ;
604 -> 605 ;
606 [label="http://dbpedia.org/ontology/deathPlace?inv#count <= 0.2\nmse = 0.0\nsamples = 3\nvalue = 3.1"] ;
605 -> 606 ;
607 [label="http://dbpedia.org/ontology/utcOffset#2@"-4" <= 0.5\nmse = 0.0\nsamples = 2\nvalue = 3.1"] ;
606 -> 607 ;
608 [label="mse = 0.0\nsamples = 1\nvalue = 3.1"] ;
607 -> 608 ;
609 [label="mse = -0.0\nsamples = 1\nvalue = 3.1"] ;
607 -> 609 ;
610 [label="mse = 0.0\nsamples = 1\nvalue = 3.1"] ;
606 -> 610 ;
611 [label="http://dbpedia.org/ontology/isPartOf#count <= 0.5\nmse = 0.0\nsamples = 2\nvalue = 3.2"] ;
605 -> 611 ;
612 [label="mse = 0.0\nsamples = 1\nvalue = 3.2"] ;
611 -> 612 ;
613 [label="mse = 0.0\nsamples = 1\nvalue = 3.2"] ;
611 -> 613 ;
614 [label="mse = 0.0\nsamples = 1\nvalue = 3.0"] ;
604 -> 614 ;
615 [label="http://xmlns.com/foaf/0.1/homepage#count <= 0.2\nmse = 0.0\nsamples = 11\nvalue = 3.1"] ;
603 -> 615 ;
616 [label="http://dbpedia.org/ontology/utcOffset#1@"-5" <= 0.5\nmse = 0.0\nsamples = 6\nvalue = 3.0"] ;
615 -> 616 ;
617 [label="http://dbpedia.org/ontology/city?inv#count <= 0.2\nmse = 0.0\nsamples = 3\nvalue = 3.0"] ;
616 -> 617 ;
618 [label="http://dbpedia.org/ontology/type#1@<http://dbpedia.org/resource/Borough_(Pennsylvania)> <= 0.5\nmse = 0.0\nsamples = 2\nvalue = 3.0"] ;
617 -> 618 ;
619 [label="mse = 0.0\nsamples = 1\nvalue = 3.0"] ;
618 -> 619 ;
620 [label="mse = 0.0\nsamples = 1\nvalue = 3.0"] ;
618 -> 620 ;
621 [label="mse = 0.0\nsamples = 1\nvalue = 3.0"] ;
617 -> 621 ;
622 [label="http://dbpedia.org/ontology/routeJunction?inv#count <= 0.2\nmse = 0.0\nsamples = 3\nvalue = 3.1"] ;
616 -> 622 ;
623 [label="http://dbpedia.org/ontology/timeZone#1@<http://dbpedia.org/resource/Eastern_Time_Zone> <= 0.5\nmse = 0.0\nsamples = 2\nvalue = 3.1"] ;
622 -> 623 ;
624 [label="mse = 0.0\nsamples = 1\nvalue = 3.1"] ;
623 -> 624 ;
625 [label="mse = 0.0\nsamples = 1\nvalue = 3.1"] ;
623 -> 625 ;
626 [label="mse = 0.0\nsamples = 1\nvalue = 3.1"] ;
622 -> 626 ;
627 [label="http://dbpedia.org/ontology/areaTotal#1 <= 3250000.0\nmse = 0.0\nsamples = 5\nvalue = 3.1"] ;
615 -> 627 ;
628 [label="rel#count <= 1.0\nmse = 0.0\nsamples = 3\nvalue = 3.1"] ;
627 -> 628 ;
629 [label="mse = 0.0\nsamples = 1\nvalue = 3.1"] ;
628 -> 629 ;
630 [label="http://dbpedia.org/ontology/district#count <= 0.2\nmse = 0.0\nsamples = 2\nvalue = 3.2"] ;
628 -> 630 ;
631 [label="mse = 0.0\nsamples = 1\nvalue = 3.2"] ;
630 -> 631 ;
632 [label="mse = -0.0\nsamples = 1\nvalue = 3.2"] ;
630 -> 632 ;
633 [label="http://dbpedia.org/ontology/areaTotal#1 <= 8750000.0\nmse = 0.0\nsamples = 2\nvalue = 3.0"] ;
627 -> 633 ;
634 [label="mse = 0.0\nsamples = 1\nvalue = 3.0"] ;
633 -> 634 ;
635 [label="mse = -0.0\nsamples = 1\nvalue = 3.1"] ;
633 -> 635 ;
636 [label="mse = 0.0\nsamples = 1\nvalue = 3.2"] ;
602 -> 636 ;
637 [label="mse = 0.0\nsamples = 1\nvalue = 3.2"] ;
587 -> 637 ;
638 [label="http://dbpedia.org/ontology/type#1@<http://dbpedia.org/resource/Town> <= 0.5\nmse = 0.0\nsamples = 2\nvalue = 3.3"] ;
586 -> 638 ;
639 [label="mse = 0.0\nsamples = 1\nvalue = 3.3"] ;
638 -> 639 ;
640 [label="mse = -0.0\nsamples = 1\nvalue = 3.3"] ;
638 -> 640 ;
641 [label="mse = -0.0\nsamples = 1\nvalue = 3.5"] ;
585 -> 641 ;
642 [label="http://dbpedia.org/ontology/type#1@<http://dbpedia.org/resource/City> <= 0.5\nmse = 0.2\nsamples = 2\nvalue = 3.6"] ;
584 -> 642 ;
643 [label="mse = 0.0\nsamples = 1\nvalue = 4.1"] ;
642 -> 643 ;
644 [label="mse = 0.0\nsamples = 1\nvalue = 3.2"] ;
642 -> 644 ;
645 [label="http://dbpedia.org/ontology/routeJunction?inv#count <= 0.4\nmse = 0.1\nsamples = 60\nvalue = 3.3"] ;
505 -> 645 ;
646 [label="http://dbpedia.org/ontology/areaWater#1 <= 2100000.0\nmse = 0.1\nsamples = 59\nvalue = 3.3"] ;
645 -> 646 ;
647 [label="http://dbpedia.org/ontology/region#1@<http://dbpedia.org/resource/Jefferson_Parish,_Louisiana> <= 0.5\nmse = 0.0\nsamples = 57\nvalue = 3.3"] ;
646 -> 647 ;
648 [label="http://dbpedia.org/ontology/utcOffset#2@"-8" <= 0.5\nmse = 0.0\nsamples = 56\nvalue = 3.3"] ;
647 -> 648 ;
649 [label="http://dbpedia.org/ontology/utcOffset#2@"-6" <= 0.5\nmse = 0.0\nsamples = 50\nvalue = 3.3"] ;
648 -> 649 ;
650 [label="http://dbpedia.org/ontology/areaWater#count <= 0.2\nmse = 0.0\nsamples = 48\nvalue = 3.3"] ;
649 -> 650 ;
651 [label="http://dbpedia.org/ontology/elevation#1 <= 4.4\nmse = 0.0\nsamples = 38\nvalue = 3.3"] ;
650 -> 651 ;
652 [label="http://dbpedia.org/ontology/routeEnd?inv#count <= 0.2\nmse = 0.0\nsamples = 37\nvalue = 3.3"] ;
651 -> 652 ;
653 [label="http://dbpedia.org/ontology/isPartOf#count <= 0.5\nmse = 0.0\nsamples = 35\nvalue = 3.3"] ;
652 -> 653 ;
654 [label="http://dbpedia.org/ontology/routeStart?inv#count <= 0.2\nmse = 0.0\nsamples = 27\nvalue = 3.3"] ;
653 -> 654 ;
655 [label="http://dbpedia.org/ontology/utcOffset#1@"-7" <= 0.5\nmse = 0.1\nsamples = 26\nvalue = 3.4"] ;
654 -> 655 ;
656 [label="rel#count <= 0.9\nmse = 0.0\nsamples = 25\nvalue = 3.3"] ;
655 -> 656 ;
657 [label="mse = 0.0\nsamples = 4\nvalue = 3.3"] ;
656 -> 657 ;
658 [label="http://dbpedia.org/ontology/elevation#1 <= 0.5\nmse = 0.1\nsamples = 21\nvalue = 3.4"] ;
656 -> 658 ;
659 [label="http://dbpedia.org/ontology/areaCode#count <= 0.2\nmse = 0.1\nsamples = 18\nvalue = 3.4"] ;
658 -> 659 ;
660 [label="http://dbpedia.org/ontology/postalCode#count <= 0.2\nmse = 0.1\nsamples = 16\nvalue = 3.4"] ;
659 -> 660 ;
661 [label="http://dbpedia.org/ontology/areaLand#1 <= 950000.0\nmse = 0.1\nsamples = 12\nvalue = 3.4"] ;
660 -> 661 ;
662 [label="http://dbpedia.org/ontology/residence?inv#count <= 0.2\nmse = 0.1\nsamples = 8\nvalue = 3.4"] ;
661 -> 662 ;
663 [label="mse = 0.1\nsamples = 7\nvalue = 3.4"] ;
662 -> 663 ;
664 [label="mse = -0.0\nsamples = 1\nvalue = 3.4"] ;
662 -> 664 ;
665 [label="http://dbpedia.org/ontology/areaTotal#1 <= 2900000.0\nmse = 0.0\nsamples = 4\nvalue = 3.4"] ;
661 -> 665 ;
666 [label="http://dbpedia.org/ontology/areaTotal#1 <= 1950000.0\nmse = 0.0\nsamples = 2\nvalue = 3.3"] ;
665 -> 666 ;
667 [label="mse = 0.0\nsamples = 1\nvalue = 3.4"] ;
666 -> 667 ;
668 [label="mse = 0.0\nsamples = 1\nvalue = 3.3"] ;
666 -> 668 ;
669 [label="http://dbpedia.org/ontology/timeZone#1@<http://dbpedia.org/resource/Eastern_Time_Zone> <= 0.5\nmse = 0.0\nsamples = 2\nvalue = 3.4"] ;
665 -> 669 ;
670 [label="mse = 0.0\nsamples = 1\nvalue = 3.4"] ;
669 -> 670 ;
671 [label="mse = 0.0\nsamples = 1\nvalue = 3.4"] ;
669 -> 671 ;
672 [label="http://dbpedia.org/ontology/timeZone#1@<http://dbpedia.org/resource/North_American_Eastern_Time_Zone> <= 0.5\nmse = 0.0\nsamples = 4\nvalue = 3.3"] ;
660 -> 672 ;
673 [label="mse = 0.1\nsamples = 3\nvalue = 3.3"] ;
672 -> 673 ;
674 [label="mse = 0.0\nsamples = 1\nvalue = 3.3"] ;
672 -> 674 ;
675 [label="http://dbpedia.org/ontology/timeZone#1@<http://dbpedia.org/resource/Eastern_Time_Zone> <= 0.5\nmse = 0.0\nsamples = 2\nvalue = 3.5"] ;
659 -> 675 ;
676 [label="mse = 0.0\nsamples = 1\nvalue = 3.5"] ;
675 -> 676 ;
677 [label="mse = 0.0\nsamples = 1\nvalue = 3.4"] ;
675 -> 677 ;
678 [label="http://dbpedia.org/ontology/elevation#1 <= 2.4\nmse = 0.0\nsamples = 3\nvalue = 3.3"] ;
658 -> 678 ;
679 [label="mse = 0.0\nsamples = 2\nvalue = 3.3"] ;
678 -> 679 ;
680 [label="mse = -0.0\nsamples = 1\nvalue = 3.3"] ;
678 -> 680 ;
681 [label="mse = -0.0\nsamples = 1\nvalue = 3.6"] ;
655 -> 681 ;
682 [label="mse = 0.0\nsamples = 1\nvalue = 3.1"] ;
654 -> 682 ;
683 [label="rel#count <= 1.1\nmse = 0.0\nsamples = 8\nvalue = 3.2"] ;
653 -> 683 ;
684 [label="http://dbpedia.org/ontology/timeZone#1@<http://dbpedia.org/resource/Eastern_Time_Zone> <= 0.5\nmse = 0.0\nsamples = 3\nvalue = 3.1"] ;
683 -> 684 ;
685 [label="mse = 0.0\nsamples = 2\nvalue = 3.1"] ;
684 -> 685 ;
686 [label="mse = -0.0\nsamples = 1\nvalue = 3.1"] ;
684 -> 686 ;
687 [label="http://dbpedia.org/ontology/areaTotal#1 <= 3912991.6\nmse = 0.0\nsamples = 5\nvalue = 3.3"] ;
683 -> 687 ;
688 [label="http://dbpedia.org/ontology/areaLand#1 <= 2812991.6\nmse = 0.0\nsamples = 4\nvalue = 3.3"] ;
687 -> 688 ;
689 [label="http://dbpedia.org/ontology/areaTotal#1 <= 1950000.0\nmse = 0.0\nsamples = 3\nvalue = 3.3"] ;
688 -> 689 ;
690 [label="http://dbpedia.org/ontology/areaLand#1 <= 1550000.0\nmse = 0.0\nsamples = 2\nvalue = 3.3"] ;
689 -> 690 ;
691 [label="mse = 0.0\nsamples = 1\nvalue = 3.3"] ;
690 -> 691 ;
692 [label="mse = -0.0\nsamples = 1\nvalue = 3.3"] ;
690 -> 692 ;
693 [label="mse = -0.0\nsamples = 1\nvalue = 3.4"] ;
689 -> 693 ;
694 [label="mse = -0.0\nsamples = 1\nvalue = 3.0"] ;
688 -> 694 ;
695 [label="mse = 0.0\nsamples = 1\nvalue = 3.4"] ;
687 -> 695 ;
696 [label="rel#count <= 1.1\nmse = 0.0\nsamples = 2\nvalue = 3.2"] ;
652 -> 696 ;
697 [label="mse = 0.0\nsamples = 1\nvalue = 3.1"] ;
696 -> 697 ;
698 [label="mse = 0.0\nsamples = 1\nvalue = 3.4"] ;
696 -> 698 ;
699 [label="mse = -0.0\nsamples = 1\nvalue = 3.0"] ;
651 -> 699 ;
700 [label="http://dbpedia.org/ontology/areaLand#1 <= 4400000.0\nmse = 0.0\nsamples = 10\nvalue = 3.2"] ;
650 -> 700 ;
701 [label="http://dbpedia.org/ontology/areaLand#1 <= 906495.8\nmse = 0.0\nsamples = 9\nvalue = 3.1"] ;
700 -> 701 ;
702 [label="mse = 0.0\nsamples = 1\nvalue = 3.4"] ;
701 -> 702 ;
703 [label="http://dbpedia.org/ontology/areaLand#1 <= 2200000.0\nmse = 0.0\nsamples = 8\nvalue = 3.1"] ;
701 -> 703 ;
704 [label="http://dbpedia.org/ontology/areaTotal#1 <= 1267997.6\nmse = 0.0\nsamples = 6\nvalue = 3.1"] ;
703 -> 704 ;
705 [label="mse = 0.0\nsamples = 1\nvalue = 3.2"] ;
704 -> 705 ;
706 [label="http://dbpedia.org/ontology/areaLand#1 <= 1850000.0\nmse = 0.0\nsamples = 5\nvalue = 3.1"] ;
704 -> 706 ;
707 [label="http://dbpedia.org/ontology/areaTotal#1 <= 1976996.4\nmse = 0.0\nsamples = 3\nvalue = 3.0"] ;
706 -> 707 ;
708 [label="http://dbpedia.org/ontology/areaCode#count <= 0.2\nmse = 0.0\nsamples = 2\nvalue = 3.0"] ;
707 -> 708 ;
709 [label="mse = 0.0\nsamples = 1\nvalue = 3.0"] ;
708 -> 709 ;
710 [label="mse = -0.0\nsamples = 1\nvalue = 3.0"] ;
708 -> 710 ;
711 [label="mse = -0.0\nsamples = 1\nvalue = 3.1"] ;
707 -> 711 ;
712 [label="http://dbpedia.org/ontology/timeZone#1@OTHER <= 0.5\nmse = 0.0\nsamples = 2\nvalue = 3.1"] ;
706 -> 712 ;
713 [label="mse = 0.0\nsamples = 1\nvalue = 3.1"] ;
712 -> 713 ;
714 [label="mse = -0.0\nsamples = 1\nvalue = 3.1"] ;
712 -> 714 ;
715 [label="http://dbpedia.org/ontology/timeZone#1@<http://dbpedia.org/resource/Eastern_Time_Zone> <= 0.5\nmse = 0.0\nsamples = 2\nvalue = 3.2"] ;
703 -> 715 ;
716 [label="mse = 0.0\nsamples = 1\nvalue = 3.3"] ;
715 -> 716 ;
717 [label="mse = 0.0\nsamples = 1\nvalue = 3.1"] ;
715 -> 717 ;
718 [label="mse = 0.0\nsamples = 1\nvalue = 3.3"] ;
700 -> 718 ;
719 [label="rel#count <= 1.1\nmse = 0.0\nsamples = 2\nvalue = 3.5"] ;
649 -> 719 ;
720 [label="mse = 0.0\nsamples = 1\nvalue = 3.5"] ;
719 -> 720 ;
721 [label="mse = -0.0\nsamples = 1\nvalue = 3.5"] ;
719 -> 721 ;
722 [label="http://dbpedia.org/ontology/areaLand#count <= 0.2\nmse = 0.0\nsamples = 6\nvalue = 3.5"] ;
648 -> 722 ;
723 [label="http://dbpedia.org/ontology/postalCode#count <= 0.2\nmse = 0.0\nsamples = 5\nvalue = 3.4"] ;
722 -> 723 ;
724 [label="mse = 0.0\nsamples = 2\nvalue = 3.4"] ;
723 -> 724 ;
725 [label="http://dbpedia.org/ontology/areaCode#count <= 0.2\nmse = 0.0\nsamples = 3\nvalue = 3.5"] ;
723 -> 725 ;
726 [label="mse = 0.0\nsamples = 1\nvalue = 3.6"] ;
725 -> 726 ;
727 [label="mse = 0.0\nsamples = 2\nvalue = 3.4"] ;
725 -> 727 ;
728 [label="mse = -0.0\nsamples = 1\nvalue = 3.7"] ;
722 -> 728 ;
729 [label="mse = -0.0\nsamples = 1\nvalue = 3.7"] ;
647 -> 729 ;
730 [label="http://dbpedia.org/ontology/timeZone#1@<http://dbpedia.org/resource/North_American_Eastern_Time_Zone> <= 0.5\nmse = 0.0\nsamples = 2\nvalue = 3.9"] ;
646 -> 730 ;
731 [label="mse = 0.0\nsamples = 1\nvalue = 4.0"] ;
730 -> 731 ;
732 [label="mse = -0.0\nsamples = 1\nvalue = 3.8"] ;
730 -> 732 ;
733 [label="mse = -0.0\nsamples = 1\nvalue = 4.3"] ;
645 -> 733 ;
734 [label="mse = 0.0\nsamples = 1\nvalue = 4.0"] ;
504 -> 734 ;
735 [label="mse = -0.0\nsamples = 1\nvalue = 3.9"] ;
503 -> 735 ;
736 [label="http://dbpedia.org/ontology/areaTotal#1 <= 5600000.0\nmse = 0.0\nsamples = 2\nvalue = 4.2"] ;
502 -> 736 ;
737 [label="mse = 0.0\nsamples = 1\nvalue = 4.1"] ;
736 -> 737 ;
738 [label="mse = -0.0\nsamples = 1\nvalue = 4.3"] ;
736 -> 738 ;
739 [label="http://dbpedia.org/ontology/elevation#1 <= 15.9\nmse = 0.1\nsamples = 215\nvalue = 3.4"] ;
501 -> 739 ;
740 [label="http://dbpedia.org/ontology/elevation#1 <= 11.0\nmse = 0.0\nsamples = 6\nvalue = 4.0"] ;
739 -> 740 ;
741 [label="http://dbpedia.org/ontology/elevation#1 <= 10.5\nmse = 0.0\nsamples = 3\nvalue = 3.8"] ;
740 -> 741 ;
742 [label="http://dbpedia.org/ontology/routeJunction?inv#count <= 0.2\nmse = 0.0\nsamples = 2\nvalue = 3.8"] ;
741 -> 742 ;
743 [label="mse = 0.0\nsamples = 1\nvalue = 3.8"] ;
742 -> 743 ;
744 [label="mse = -0.0\nsamples = 1\nvalue = 3.8"] ;
742 -> 744 ;
745 [label="mse = 0.0\nsamples = 1\nvalue = 3.9"] ;
741 -> 745 ;
746 [label="http://dbpedia.org/ontology/elevation#1 <= 13.9\nmse = 0.0\nsamples = 3\nvalue = 4.1"] ;
740 -> 746 ;
747 [label="http://dbpedia.org/ontology/areaLand#2 <= 2150000.0\nmse = 0.0\nsamples = 2\nvalue = 4.2"] ;
746 -> 747 ;
748 [label="mse = 0.0\nsamples = 1\nvalue = 4.3"] ;
747 -> 748 ;
749 [label="mse = 0.0\nsamples = 1\nvalue = 4.2"] ;
747 -> 749 ;
750 [label="mse = -0.0\nsamples = 1\nvalue = 4.0"] ;
746 -> 750 ;
751 [label="http://dbpedia.org/ontology/elevation#1 <= 156.6\nmse = 0.1\nsamples = 209\nvalue = 3.4"] ;
739 -> 751 ;
752 [label="http://dbpedia.org/ontology/areaCode#count <= 0.2\nmse = 0.1\nsamples = 87\nvalue = 3.5"] ;
751 -> 752 ;
753 [label="http://dbpedia.org/ontology/areaLand#1 <= 1424493.4\nmse = 0.1\nsamples = 33\nvalue = 3.3"] ;
752 -> 753 ;
754 [label="http://dbpedia.org/ontology/leaderTitle#count <= 0.2\nmse = 0.0\nsamples = 19\nvalue = 3.2"] ;
753 -> 754 ;
755 [label="http://dbpedia.org/ontology/type#1@OTHER <= 0.5\nmse = 0.0\nsamples = 13\nvalue = 3.2"] ;
754 -> 755 ;
756 [label="http://dbpedia.org/ontology/elevation#1 <= 80.4\nmse = 0.0\nsamples = 4\nvalue = 3.1"] ;
755 -> 756 ;
757 [label="http://dbpedia.org/ontology/elevation#count <= 0.4\nmse = 0.0\nsamples = 3\nvalue = 3.1"] ;
756 -> 757 ;
758 [label="mse = 0.0\nsamples = 1\nvalue = 3.1"] ;
757 -> 758 ;
759 [label="http://dbpedia.org/ontology/areaLand#1 <= 906495.8\nmse = 0.0\nsamples = 2\nvalue = 3.1"] ;
757 -> 759 ;
760 [label="mse = 0.0\nsamples = 1\nvalue = 3.1"] ;
759 -> 760 ;
761 [label="mse = 0.0\nsamples = 1\nvalue = 3.1"] ;
759 -> 761 ;
762 [label="mse = 0.0\nsamples = 1\nvalue = 3.0"] ;
756 -> 762 ;
763 [label="http://dbpedia.org/ontology/elevation#1 <= 31.5\nmse = 0.0\nsamples = 9\nvalue = 3.2"] ;
755 -> 763 ;
764 [label="http://dbpedia.org/ontology/elevation#1 <= 21.5\nmse = 0.0\nsamples = 4\nvalue = 3.1"] ;
763 -> 764 ;
765 [label="mse = 0.0\nsamples = 1\nvalue = 3.2"] ;
764 -> 765 ;
766 [label="http://dbpedia.org/ontology/department#1@<http://dbpedia.org/resource/Nord_(French_department)> <= 0.5\nmse = 0.0\nsamples = 3\nvalue = 3.1"] ;
764 -> 766 ;
767 [label="http://dbpedia.org/ontology/department#1@<http://dbpedia.org/resource/Pas-de-Calais> <= 0.5\nmse = 0.0\nsamples = 2\nvalue = 3.0"] ;
766 -> 767 ;
768 [label="mse = 0.0\nsamples = 1\nvalue = 3.0"] ;
767 -> 768 ;
769 [label="mse = 0.0\nsamples = 1\nvalue = 3.1"] ;
767 -> 769 ;
770 [label="mse = -0.0\nsamples = 1\nvalue = 3.1"] ;
766 -> 770 ;
771 [label="http://dbpedia.org/ontology/maximumElevation#1 <= 63.5\nmse = 0.0\nsamples = 5\nvalue = 3.3"] ;
763 -> 771 ;
772 [label="http://dbpedia.org/ontology/areaTotal#1 <= 9590000.0\nmse = 0.0\nsamples = 4\nvalue = 3.2"] ;
771 -> 772 ;
773 [label="http://dbpedia.org/ontology/maximumElevation#1 <= 48.5\nmse = 0.0\nsamples = 3\nvalue = 3.3"] ;
772 -> 773 ;
774 [label="http://dbpedia.org/ontology/minimumElevation#count <= 0.2\nmse = 0.0\nsamples = 2\nvalue = 3.3"] ;
773 -> 774 ;
775 [label="mse = 0.0\nsamples = 1\nvalue = 3.3"] ;
774 -> 775 ;
776 [label="mse = 0.0\nsamples = 1\nvalue = 3.3"] ;
774 -> 776 ;
777 [label="mse = 0.0\nsamples = 1\nvalue = 3.2"] ;
773 -> 777 ;
778 [label="mse = -0.0\nsamples = 1\nvalue = 3.2"] ;
772 -> 778 ;
779 [label="mse = 0.0\nsamples = 1\nvalue = 3.6"] ;
771 -> 779 ;
780 [label="http://dbpedia.org/ontology/areaTotal#1 <= 8400000.0\nmse = 0.0\nsamples = 6\nvalue = 3.3"] ;
754 -> 780 ;
781 [label="http://dbpedia.org/ontology/areaTotal#1 <= 1525000.0\nmse = 0.0\nsamples = 5\nvalue = 3.3"] ;
780 -> 781 ;
782 [label="http://dbpedia.org/ontology/leaderName#count <= 0.2\nmse = 0.0\nsamples = 2\nvalue = 3.4"] ;
781 -> 782 ;
783 [label="mse = 0.0\nsamples = 1\nvalue = 3.4"] ;
782 -> 783 ;
784 [label="mse = 0.0\nsamples = 1\nvalue = 3.5"] ;
782 -> 784 ;
785 [label="http://dbpedia.org/ontology/elevation#1 <= 31.5\nmse = 0.0\nsamples = 3\nvalue = 3.2"] ;
781 -> 785 ;
786 [label="http://dbpedia.org/ontology/elevation#1 <= 20.0\nmse = 0.0\nsamples = 2\nvalue = 3.2"] ;
785 -> 786 ;
787 [label="mse = -0.0\nsamples = 1\nvalue = 3.2"] ;
786 -> 787 ;
788 [label="mse = -0.0\nsamples = 1\nvalue = 3.2"] ;
786 -> 788 ;
789 [label="mse = 0.0\nsamples = 1\nvalue = 3.3"] ;
785 -> 789 ;
790 [label="mse = -0.0\nsamples = 1\nvalue = 3.9"] ;
780 -> 790 ;
791 [label="http://dbpedia.org/ontology/elevation#1 <= 85.0\nmse = 0.1\nsamples = 14\nvalue = 3.5"] ;
753 -> 791 ;
792 [label="http://dbpedia.org/ontology/elevation#1 <= 48.9\nmse = 0.0\nsamples = 9\nvalue = 3.4"] ;
791 -> 792 ;
793 [label="http://dbpedia.org/ontology/elevation#1 <= 27.5\nmse = 0.0\nsamples = 6\nvalue = 3.5"] ;
792 -> 793 ;
794 [label="http://dbpedia.org/ontology/utcOffset#2@"-6" <= 0.5\nmse = 0.0\nsamples = 3\nvalue = 3.4"] ;
793 -> 794 ;
795 [label="http://dbpedia.org/ontology/areaLand#1 <= 2460488.7\nmse = 0.0\nsamples = 2\nvalue = 3.4"] ;
794 -> 795 ;
796 [label="mse = 0.0\nsamples = 1\nvalue = 3.4"] ;
795 -> 796 ;
797 [label="mse = 0.0\nsamples = 1\nvalue = 3.4"] ;
795 -> 797 ;
798 [label="mse = -0.0\nsamples = 1\nvalue = 3.5"] ;
794 -> 798 ;
799 [label="http://dbpedia.org/ontology/areaLand#2 <= 2192500.0\nmse = 0.0\nsamples = 3\nvalue = 3.6"] ;
793 -> 799 ;
800 [label="http://dbpedia.org/ontology/areaTotal#1 <= 2893500.0\nmse = 0.0\nsamples = 2\nvalue = 3.5"] ;
799 -> 800 ;
801 [label="mse = 0.0\nsamples = 1\nvalue = 3.5"] ;
800 -> 801 ;
802 [label="mse = 0.0\nsamples = 1\nvalue = 3.6"] ;
800 -> 802 ;
803 [label="mse = 0.0\nsamples = 1\nvalue = 3.7"] ;
799 -> 803 ;
804 [label="http://dbpedia.org/ontology/areaLand#1 <= 2719487.6\nmse = 0.0\nsamples = 3\nvalue = 3.2"] ;
792 -> 804 ;
805 [label="mse = 0.0\nsamples = 1\nvalue = 3.4"] ;
804 -> 805 ;
806 [label="http://dbpedia.org/ontology/utcOffset#2@"-8" <= 0.5\nmse = 0.0\nsamples = 2\nvalue = 3.0"] ;
804 -> 806 ;
807 [label="mse = 0.0\nsamples = 1\nvalue = 3.0"] ;
806 -> 807 ;
808 [label="mse = 0.0\nsamples = 1\nvalue = 3.1"] ;
806 -> 808 ;
809 [label="http://dbpedia.org/ontology/timeZone#1@<http://dbpedia.org/resource/North_American_Eastern_Time_Zone> <= 0.5\nmse = 0.0\nsamples = 5\nvalue = 3.8"] ;
791 -> 809 ;
810 [label="http://dbpedia.org/ontology/areaLand#2 <= 2100000.0\nmse = 0.0\nsamples = 3\nvalue = 3.7"] ;
809 -> 810 ;
811 [label="mse = 0.0\nsamples = 1\nvalue = 3.6"] ;
810 -> 811 ;
812 [label="http://dbpedia.org/ontology/areaLand#1 <= 3107985.8\nmse = 0.0\nsamples = 2\nvalue = 3.8"] ;
810 -> 812 ;
813 [label="mse = 0.0\nsamples = 1\nvalue = 3.7"] ;
812 -> 813 ;
814 [label="mse = 0.0\nsamples = 1\nvalue = 3.8"] ;
812 -> 814 ;
815 [label="http://dbpedia.org/ontology/areaLand#2 <= 1650000.0\nmse = 0.0\nsamples = 2\nvalue = 3.9"] ;
809 -> 815 ;
816 [label="mse = 0.0\nsamples = 1\nvalue = 4.0"] ;
815 -> 816 ;
817 [label="mse = 0.0\nsamples = 1\nvalue = 3.9"] ;
815 -> 817 ;
818 [label="http://dbpedia.org/ontology/routeStart?inv#count <= 0.2\nmse = 0.1\nsamples = 54\nvalue = 3.6"] ;
752 -> 818 ;
819 [label="http://dbpedia.org/ontology/isPartOf#count <= 0.5\nmse = 0.1\nsamples = 50\nvalue = 3.6"] ;
818 -> 819 ;
820 [label="http://dbpedia.org/ontology/areaTotal#1 <= 10870000.0\nmse = 0.1\nsamples = 46\nvalue = 3.6"] ;
819 -> 820 ;
821 [label="http://dbpedia.org/ontology/areaCode#count <= 0.4\nmse = 0.1\nsamples = 43\nvalue = 3.6"] ;
820 -> 821 ;
822 [label="http://dbpedia.org/ontology/populationAsOf#count <= 0.2\nmse = 0.1\nsamples = 37\nvalue = 3.7"] ;
821 -> 822 ;
823 [label="http://dbpedia.org/ontology/elevation#1 <= 122.0\nmse = 0.1\nsamples = 35\nvalue = 3.6"] ;
822 -> 823 ;
824 [label="http://dbpedia.org/ontology/areaLand#2 <= 1929500.0\nmse = 0.1\nsamples = 31\nvalue = 3.6"] ;
823 -> 824 ;
825 [label="http://dbpedia.org/ontology/type#count <= 0.2\nmse = 0.1\nsamples = 28\nvalue = 3.6"] ;
824 -> 825 ;
826 [label="http://dbpedia.org/ontology/elevation#1 <= 80.6\nmse = 0.1\nsamples = 8\nvalue = 3.5"] ;
825 -> 826 ;
827 [label="http://dbpedia.org/ontology/postalCode#count <= 0.2\nmse = 0.0\nsamples = 3\nvalue = 3.1"] ;
826 -> 827 ;
828 [label="mse = 0.0\nsamples = 1\nvalue = 3.2"] ;
827 -> 828 ;
829 [label="http://dbpedia.org/ontology/elevation#1 <= 59.6\nmse = 0.0\nsamples = 2\nvalue = 3.1"] ;
827 -> 829 ;
830 [label="mse = 0.0\nsamples = 1\nvalue = 3.1"] ;
829 -> 830 ;
831 [label="mse = 0.0\nsamples = 1\nvalue = 3.1"] ;
829 -> 831 ;
832 [label="rel#count <= 1.0\nmse = 0.0\nsamples = 5\nvalue = 3.6"] ;
826 -> 832 ;
833 [label="http://xmlns.com/foaf/0.1/homepage#count <= 0.2\nmse = 0.0\nsamples = 3\nvalue = 3.7"] ;
832 -> 833 ;
834 [label="http://dbpedia.org/ontology/areaTotal#1 <= 5370000.0\nmse = 0.0\nsamples = 2\nvalue = 3.6"] ;
833 -> 834 ;
835 [label="mse = 0.0\nsamples = 1\nvalue = 3.6"] ;
834 -> 835 ;
836 [label="mse = 0.0\nsamples = 1\nvalue = 3.6"] ;
834 -> 836 ;
837 [label="mse = -0.0\nsamples = 1\nvalue = 4.0"] ;
833 -> 837 ;
838 [label="http://dbpedia.org/ontology/country#1@<http://dbpedia.org/resource/Italy> <= 0.5\nmse = 0.0\nsamples = 2\nvalue = 3.5"] ;
832 -> 838 ;
839 [label="mse = 0.0\nsamples = 1\nvalue = 3.4"] ;
838 -> 839 ;
840 [label="mse = -0.0\nsamples = 1\nvalue = 3.5"] ;
838 -> 840 ;
841 [label="http://dbpedia.org/ontology/type#1@<http://dbpedia.org/resource/Town> <= 0.5\nmse = 0.1\nsamples = 20\nvalue = 3.7"] ;
825 -> 841 ;
842 [label="http://dbpedia.org/ontology/deathPlace?inv#count <= 0.2\nmse = 0.0\nsamples = 19\nvalue = 3.7"] ;
841 -> 842 ;
843 [label="http://dbpedia.org/ontology/elevation#1 <= 112.5\nmse = 0.0\nsamples = 17\nvalue = 3.7"] ;
842 -> 843 ;
844 [label="http://dbpedia.org/ontology/elevation#1 <= 106.0\nmse = 0.0\nsamples = 16\nvalue = 3.8"] ;
843 -> 844 ;
845 [label="http://dbpedia.org/ontology/timeZone#1@<http://dbpedia.org/resource/Pacific_Time_Zone> <= 0.5\nmse = 0.0\nsamples = 15\nvalue = 3.7"] ;
844 -> 845 ;
846 [label="http://dbpedia.org/ontology/region#1@<http://dbpedia.org/resource/Berks_County,_Pennsylvania> <= 0.5\nmse = 0.0\nsamples = 12\nvalue = 3.8"] ;
845 -> 846 ;
847 [label="http://dbpedia.org/ontology/elevation#1 <= 43.4\nmse = 0.0\nsamples = 10\nvalue = 3.8"] ;
846 -> 847 ;
848 [label="rel#count <= 1.0\nmse = 0.0\nsamples = 6\nvalue = 3.7"] ;
847 -> 848 ;
849 [label="http://dbpedia.org/ontology/elevation#1 <= 34.0\nmse = 0.0\nsamples = 2\nvalue = 3.6"] ;
848 -> 849 ;
850 [label="mse = 0.0\nsamples = 1\nvalue = 3.7"] ;
849 -> 850 ;
851 [label="mse = -0.0\nsamples = 1\nvalue = 3.6"] ;
849 -> 851 ;
852 [label="rel#count <= 1.1\nmse = 0.0\nsamples = 4\nvalue = 3.9"] ;
848 -> 852 ;
853 [label="http://dbpedia.org/ontology/elevation#1 <= 31.4\nmse = 0.0\nsamples = 2\nvalue = 4.0"] ;
852 -> 853 ;
854 [label="mse = 0.0\nsamples = 1\nvalue = 3.9"] ;
853 -> 854 ;
855 [label="mse = 0.0\nsamples = 1\nvalue = 4.0"] ;
853 -> 855 ;
856 [label="http://dbpedia.org/ontology/areaLand#1 <= 3800000.0\nmse = 0.0\nsamples = 2\nvalue = 3.8"] ;
852 -> 856 ;
857 [label="mse = 0.0\nsamples = 1\nvalue = 3.8"] ;
856 -> 857 ;
858 [label="mse = 0.0\nsamples = 1\nvalue = 3.8"] ;
856 -> 858 ;
859 [label="http://dbpedia.org/ontology/timeZone#1@<http://dbpedia.org/resource/North_American_Central_Time_Zone> <= 0.5\nmse = 0.0\nsamples = 4\nvalue = 3.9"] ;
847 -> 859 ;
860 [label="http://dbpedia.org/ontology/timeZone#1@<http://dbpedia.org/resource/North_American_Eastern_Time_Zone> <= 0.5\nmse = 0.0\nsamples = 3\nvalue = 3.9"] ;
859 -> 860 ;
861 [label="mse = 0.0\nsamples = 1\nvalue = 3.9"] ;
860 -> 861 ;
862 [label="http://dbpedia.org/ontology/region#1@<http://dbpedia.org/resource/Delaware_County,_Pennsylvania> <= 0.5\nmse = 0.0\nsamples = 2\nvalue = 3.9"] ;
860 -> 862 ;
863 [label="mse = 0.0\nsamples = 1\nvalue = 3.9"] ;
862 -> 863 ;
864 [label="mse = -0.0\nsamples = 1\nvalue = 3.9"] ;
862 -> 864 ;
865 [label="mse = 0.0\nsamples = 1\nvalue = 4.0"] ;
859 -> 865 ;
866 [label="http://dbpedia.org/ontology/elevation#1 <= 89.0\nmse = 0.0\nsamples = 2\nvalue = 3.6"] ;
846 -> 866 ;
867 [label="mse = 0.0\nsamples = 1\nvalue = 3.5"] ;
866 -> 867 ;
868 [label="mse = 0.0\nsamples = 1\nvalue = 3.7"] ;
866 -> 868 ;
869 [label="http://dbpedia.org/ontology/areaLand#count <= 0.2\nmse = 0.0\nsamples = 3\nvalue = 3.4"] ;
845 -> 869 ;
870 [label="mse = 0.0\nsamples = 2\nvalue = 3.4"] ;
869 -> 870 ;
871 [label="mse = -0.0\nsamples = 1\nvalue = 3.6"] ;
869 -> 871 ;
872 [label="mse = -0.0\nsamples = 1\nvalue = 4.2"] ;
844 -> 872 ;
873 [label="mse = 0.0\nsamples = 1\nvalue = 3.5"] ;
843 -> 873 ;
874 [label="http://dbpedia.org/ontology/region#1@OTHER <= 0.5\nmse = 0.0\nsamples = 2\nvalue = 3.5"] ;
842 -> 874 ;
875 [label="mse = -0.0\nsamples = 1\nvalue = 3.5"] ;
874 -> 875 ;
876 [label="mse = -0.0\nsamples = 1\nvalue = 3.4"] ;
874 -> 876 ;
877 [label="mse = -0.0\nsamples = 1\nvalue = 3.1"] ;
841 -> 877 ;
878 [label="http://dbpedia.org/ontology/elevation#count <= 0.4\nmse = 0.0\nsamples = 3\nvalue = 3.3"] ;
824 -> 878 ;
879 [label="mse = 0.0\nsamples = 1\nvalue = 3.2"] ;
878 -> 879 ;
880 [label="http://dbpedia.org/ontology/areaWater#count <= 0.4\nmse = 0.0\nsamples = 2\nvalue = 3.4"] ;
878 -> 880 ;
881 [label="mse = 0.0\nsamples = 1\nvalue = 3.4"] ;
880 -> 881 ;
882 [label="mse = 0.0\nsamples = 1\nvalue = 3.3"] ;
880 -> 882 ;
883 [label="http://dbpedia.org/ontology/areaLand#2 <= 3552851.0\nmse = 0.1\nsamples = 4\nvalue = 3.9"] ;
823 -> 883 ;
884 [label="http://dbpedia.org/ontology/utcOffset#1@OTHER <= 0.5\nmse = 0.0\nsamples = 3\nvalue = 3.8"] ;
883 -> 884 ;
885 [label="mse = 0.0\nsamples = 1\nvalue = 3.6"] ;
884 -> 885 ;
886 [label="http://dbpedia.org/ontology/region#count <= 0.2\nmse = 0.0\nsamples = 2\nvalue = 3.8"] ;
884 -> 886 ;
887 [label="mse = 0.0\nsamples = 1\nvalue = 3.9"] ;
886 -> 887 ;
888 [label="mse = 0.0\nsamples = 1\nvalue = 3.8"] ;
886 -> 888 ;
889 [label="mse = -0.0\nsamples = 1\nvalue = 4.3"] ;
883 -> 889 ;
890 [label="http://xmlns.com/foaf/0.1/name#count <= 0.4\nmse = 0.0\nsamples = 2\nvalue = 4.3"] ;
822 -> 890 ;
891 [label="mse = 0.0\nsamples = 1\nvalue = 4.4"] ;
890 -> 891 ;
892 [label="mse = -0.0\nsamples = 1\nvalue = 4.0"] ;
890 -> 892 ;
893 [label="http://dbpedia.org/ontology/elevation#1 <= 113.5\nmse = 0.0\nsamples = 6\nvalue = 3.4"] ;
821 -> 893 ;
894 [label="http://dbpedia.org/ontology/populationAsOf#count <= 0.2\nmse = 0.0\nsamples = 3\nvalue = 3.5"] ;
893 -> 894 ;
895 [label="http://dbpedia.org/ontology/elevation#1 <= 106.0\nmse = 0.0\nsamples = 2\nvalue = 3.5"] ;
894 -> 895 ;
896 [label="mse = 0.0\nsamples = 1\nvalue = 3.5"] ;
895 -> 896 ;
897 [label="mse = 0.0\nsamples = 1\nvalue = 3.5"] ;
895 -> 897 ;
898 [label="mse = -0.0\nsamples = 1\nvalue = 3.8"] ;
894 -> 898 ;
899 [label="http://dbpedia.org/ontology/elevation#1 <= 135.5\nmse = 0.0\nsamples = 3\nvalue = 3.2"] ;
893 -> 899 ;
900 [label="http://dbpedia.org/ontology/elevation#1 <= 125.5\nmse = 0.0\nsamples = 2\nvalue = 3.2"] ;
899 -> 900 ;
901 [label="mse = 0.0\nsamples = 1\nvalue = 3.2"] ;
900 -> 901 ;
902 [label="mse = 0.0\nsamples = 1\nvalue = 3.1"] ;
900 -> 902 ;
903 [label="mse = -0.0\nsamples = 1\nvalue = 3.3"] ;
899 -> 903 ;
904 [label="http://dbpedia.org/ontology/areaCode#count <= 0.4\nmse = 0.0\nsamples = 3\nvalue = 4.0"] ;
820 -> 904 ;
905 [label="mse = 0.0\nsamples = 1\nvalue = 4.4"] ;
904 -> 905 ;
906 [label="http://dbpedia.org/ontology/elevation#1 <= 65.5\nmse = 0.0\nsamples = 2\nvalue = 3.9"] ;
904 -> 906 ;
907 [label="mse = 0.0\nsamples = 1\nvalue = 3.9"] ;
906 -> 907 ;
908 [label="mse = 0.0\nsamples = 1\nvalue = 3.9"] ;
906 -> 908 ;
909 [label="http://dbpedia.org/ontology/elevation#1 <= 26.1\nmse = 0.0\nsamples = 4\nvalue = 3.2"] ;
819 -> 909 ;
910 [label="mse = 0.0\nsamples = 1\nvalue = 3.3"] ;
909 -> 910 ;
911 [label="rel#count <= 1.2\nmse = 0.0\nsamples = 3\nvalue = 3.2"] ;
909 -> 911 ;
912 [label="mse = 0.0\nsamples = 1\nvalue = 3.1"] ;
911 -> 912 ;
913 [label="http://dbpedia.org/ontology/elevation#1 <= 84.6\nmse = 0.0\nsamples = 2\nvalue = 3.2"] ;
911 -> 913 ;
914 [label="mse = 0.0\nsamples = 1\nvalue = 3.2"] ;
913 -> 914 ;
915 [label="mse = 0.0\nsamples = 1\nvalue = 3.2"] ;
913 -> 915 ;
916 [label="rel#count <= 1.1\nmse = 0.0\nsamples = 4\nvalue = 3.2"] ;
818 -> 916 ;
917 [label="http://dbpedia.org/ontology/region#1@<http://dbpedia.org/resource/Delaware_County,_Pennsylvania> <= 0.5\nmse = 0.0\nsamples = 2\nvalue = 3.1"] ;
916 -> 917 ;
918 [label="mse = 0.0\nsamples = 1\nvalue = 3.1"] ;
917 -> 918 ;
919 [label="mse = 0.0\nsamples = 1\nvalue = 3.1"] ;
917 -> 919 ;
920 [label="rel#count <= 1.2\nmse = 0.0\nsamples = 2\nvalue = 3.3"] ;
916 -> 920 ;
921 [label="mse = 0.0\nsamples = 1\nvalue = 3.3"] ;
920 -> 921 ;
922 [label="mse = 0.0\nsamples = 1\nvalue = 3.4"] ;
920 -> 922 ;
923 [label="http://dbpedia.org/ontology/region#1@OTHER <= 0.5\nmse = 0.1\nsamples = 122\nvalue = 3.4"] ;
751 -> 923 ;
924 [label="http://dbpedia.org/ontology/elevation#1 <= 272.0\nmse = 0.1\nsamples = 51\nvalue = 3.5"] ;
923 -> 924 ;
925 [label="http://dbpedia.org/ontology/timeZone#1@<http://dbpedia.org/resource/North_American_Central_Time_Zone> <= 0.5\nmse = 0.1\nsamples = 47\nvalue = 3.4"] ;
924 -> 925 ;
926 [label="http://dbpedia.org/ontology/region#1@<http://dbpedia.org/resource/Lombardy> <= 0.5\nmse = 0.1\nsamples = 40\nvalue = 3.4"] ;
925 -> 926 ;
927 [label="http://dbpedia.org/ontology/residence?inv#count <= 0.2\nmse = 0.0\nsamples = 36\nvalue = 3.4"] ;
926 -> 927 ;
928 [label="http://dbpedia.org/ontology/elevation#1 <= 261.0\nmse = 0.0\nsamples = 35\nvalue = 3.4"] ;
927 -> 928 ;
929 [label="http://dbpedia.org/ontology/district#count <= 0.2\nmse = 0.0\nsamples = 30\nvalue = 3.3"] ;
928 -> 929 ;
930 [label="http://xmlns.com/foaf/0.1/name#count <= 0.5\nmse = 0.0\nsamples = 5\nvalue = 3.2"] ;
929 -> 930 ;
931 [label="http://dbpedia.org/ontology/nearestCity?inv#count <= 0.2\nmse = 0.0\nsamples = 4\nvalue = 3.2"] ;
930 -> 931 ;
932 [label="http://dbpedia.org/ontology/timeZone#1@OTHER <= 0.5\nmse = 0.0\nsamples = 3\nvalue = 3.1"] ;
931 -> 932 ;
933 [label="http://dbpedia.org/ontology/elevation#1 <= 211.5\nmse = 0.0\nsamples = 2\nvalue = 3.1"] ;
932 -> 933 ;
934 [label="mse = 0.0\nsamples = 1\nvalue = 3.1"] ;
933 -> 934 ;
935 [label="mse = 0.0\nsamples = 1\nvalue = 3.2"] ;
933 -> 935 ;
936 [label="mse = 0.0\nsamples = 1\nvalue = 3.1"] ;
932 -> 936 ;
937 [label="mse = -0.0\nsamples = 1\nvalue = 3.3"] ;
931 -> 937 ;
938 [label="mse = 0.0\nsamples = 1\nvalue = 3.5"] ;
930 -> 938 ;
939 [label="http://dbpedia.org/ontology/elevation#1 <= 218.5\nmse = 0.0\nsamples = 25\nvalue = 3.4"] ;
929 -> 939 ;
940 [label="http://dbpedia.org/ontology/elevation#1 <= 202.5\nmse = 0.0\nsamples = 12\nvalue = 3.4"] ;
939 -> 940 ;
941 [label="http://dbpedia.org/ontology/elevation#1 <= 186.0\nmse = 0.0\nsamples = 7\nvalue = 3.4"] ;
940 -> 941 ;
942 [label="rel#count <= 1.0\nmse = 0.1\nsamples = 3\nvalue = 3.6"] ;
941 -> 942 ;
943 [label="http://dbpedia.org/ontology/elevation#1 <= 177.5\nmse = 0.1\nsamples = 2\nvalue = 3.5"] ;
942 -> 943 ;
944 [label="mse = 0.0\nsamples = 1\nvalue = 3.1"] ;
943 -> 944 ;
945 [label="mse = 0.0\nsamples = 1\nvalue = 3.7"] ;
943 -> 945 ;
946 [label="mse = -0.0\nsamples = 1\nvalue = 3.8"] ;
942 -> 946 ;
947 [label="http://dbpedia.org/ontology/elevation#1 <= 199.5\nmse = 0.0\nsamples = 4\nvalue = 3.3"] ;
941 -> 947 ;
948 [label="http://dbpedia.org/ontology/elevation#1 <= 191.5\nmse = 0.0\nsamples = 3\nvalue = 3.2"] ;
947 -> 948 ;
949 [label="mse = 0.0\nsamples = 1\nvalue = 3.2"] ;
948 -> 949 ;
950 [label="http://dbpedia.org/ontology/elevation#1 <= 195.0\nmse = 0.0\nsamples = 2\nvalue = 3.1"] ;
948 -> 950 ;
951 [label="mse = 0.0\nsamples = 1\nvalue = 3.1"] ;
950 -> 951 ;
952 [label="mse = 0.0\nsamples = 1\nvalue = 3.2"] ;
950 -> 952 ;
953 [label="mse = 0.0\nsamples = 1\nvalue = 3.4"] ;
947 -> 953 ;
954 [label="http://dbpedia.org/ontology/region#1@<http://dbpedia.org/resource/South_Moravian_Region> <= 0.5\nmse = 0.0\nsamples = 5\nvalue = 3.5"] ;
940 -> 954 ;
955 [label="http://dbpedia.org/ontology/elevation#1 <= 216.5\nmse = 0.0\nsamples = 4\nvalue = 3.5"] ;
954 -> 955 ;
956 [label="http://dbpedia.org/ontology/region#1@<http://dbpedia.org/resource/Olomouc_Region> <= 0.5\nmse = 0.0\nsamples = 2\nvalue = 3.4"] ;
955 -> 956 ;
957 [label="mse = 0.0\nsamples = 1\nvalue = 3.4"] ;
956 -> 957 ;
958 [label="mse = 0.0\nsamples = 1\nvalue = 3.3"] ;
956 -> 958 ;
959 [label="http://dbpedia.org/ontology/region#1@<http://dbpedia.org/resource/Pardubice_Region> <= 0.5\nmse = 0.0\nsamples = 2\nvalue = 3.5"] ;
955 -> 959 ;
960 [label="mse = 0.0\nsamples = 1\nvalue = 3.5"] ;
959 -> 960 ;
961 [label="mse = 0.0\nsamples = 1\nvalue = 3.5"] ;
959 -> 961 ;
962 [label="mse = 0.0\nsamples = 1\nvalue = 3.7"] ;
954 -> 962 ;
963 [label="http://dbpedia.org/ontology/elevation#1 <= 239.0\nmse = 0.0\nsamples = 13\nvalue = 3.3"] ;
939 -> 963 ;
964 [label="http://dbpedia.org/ontology/region#1@<http://dbpedia.org/resource/Moravian-Silesian_Region> <= 0.5\nmse = 0.0\nsamples = 6\nvalue = 3.2"] ;
963 -> 964 ;
965 [label="http://dbpedia.org/ontology/elevation#1 <= 224.5\nmse = 0.0\nsamples = 5\nvalue = 3.2"] ;
964 -> 965 ;
966 [label="http://dbpedia.org/ontology/region#1@<http://dbpedia.org/resource/Pardubice_Region> <= 0.5\nmse = 0.0\nsamples = 2\nvalue = 3.1"] ;
965 -> 966 ;
967 [label="mse = 0.0\nsamples = 1\nvalue = 3.1"] ;
966 -> 967 ;
968 [label="mse = 0.0\nsamples = 1\nvalue = 3.1"] ;
966 -> 968 ;
969 [label="http://dbpedia.org/ontology/elevation#1 <= 231.5\nmse = 0.0\nsamples = 3\nvalue = 3.2"] ;
965 -> 969 ;
970 [label="mse = 0.0\nsamples = 2\nvalue = 3.2"] ;
969 -> 970 ;
971 [label="mse = -0.0\nsamples = 1\nvalue = 3.2"] ;
969 -> 971 ;
972 [label="mse = 0.0\nsamples = 1\nvalue = 3.3"] ;
964 -> 972 ;
973 [label="http://dbpedia.org/ontology/region#1@<http://dbpedia.org/resource/Zln_Region> <= 0.5\nmse = 0.0\nsamples = 7\nvalue = 3.4"] ;
963 -> 973 ;
974 [label="rel#count <= 1.0\nmse = 0.0\nsamples = 6\nvalue = 3.4"] ;
973 -> 974 ;
975 [label="http://dbpedia.org/ontology/elevation#1 <= 252.5\nmse = 0.0\nsamples = 4\nvalue = 3.4"] ;
974 -> 975 ;
976 [label="http://dbpedia.org/ontology/elevation#1 <= 246.5\nmse = 0.0\nsamples = 3\nvalue = 3.5"] ;
975 -> 976 ;
977 [label="http://dbpedia.org/ontology/region#1@<http://dbpedia.org/resource/Central_Bohemian_Region> <= 0.5\nmse = 0.0\nsamples = 2\nvalue = 3.4"] ;
976 -> 977 ;
978 [label="mse = 0.0\nsamples = 1\nvalue = 3.5"] ;
977 -> 978 ;
979 [label="mse = 0.0\nsamples = 1\nvalue = 3.4"] ;
977 -> 979 ;
980 [label="mse = 0.0\nsamples = 1\nvalue = 3.5"] ;
976 -> 980 ;
981 [label="mse = -0.0\nsamples = 1\nvalue = 3.3"] ;
975 -> 981 ;
982 [label="http://dbpedia.org/ontology/region#1@<http://dbpedia.org/resource/Central_Bohemian_Region> <= 0.5\nmse = 0.0\nsamples = 2\nvalue = 3.3"] ;
974 -> 982 ;
983 [label="mse = 0.0\nsamples = 1\nvalue = 3.3"] ;
982 -> 983 ;
984 [label="mse = 0.0\nsamples = 1\nvalue = 3.3"] ;
982 -> 984 ;
985 [label="mse = 0.0\nsamples = 1\nvalue = 3.7"] ;
973 -> 985 ;
986 [label="http://dbpedia.org/ontology/elevation#1 <= 264.5\nmse = 0.0\nsamples = 5\nvalue = 3.5"] ;
928 -> 986 ;
987 [label="mse = 0.0\nsamples = 1\nvalue = 3.7"] ;
986 -> 987 ;
988 [label="http://dbpedia.org/ontology/region#1@<http://dbpedia.org/resource/Hradec_Krlov_Region> <= 0.5\nmse = 0.0\nsamples = 4\nvalue = 3.5"] ;
986 -> 988 ;
989 [label="rel#count <= 1.0\nmse = 0.0\nsamples = 3\nvalue = 3.5"] ;
988 -> 989 ;
990 [label="mse = 0.0\nsamples = 1\nvalue = 3.6"] ;
989 -> 990 ;
991 [label="http://dbpedia.org/ontology/timeZone#1@OTHER <= 0.5\nmse = 0.0\nsamples = 2\nvalue = 3.5"] ;
989 -> 991 ;
992 [label="mse = 0.0\nsamples = 1\nvalue = 3.5"] ;
991 -> 992 ;
993 [label="mse = -0.0\nsamples = 1\nvalue = 3.5"] ;
991 -> 993 ;
994 [label="mse = -0.0\nsamples = 1\nvalue = 3.2"] ;
988 -> 994 ;
995 [label="mse = 0.0\nsamples = 1\nvalue = 4.0"] ;
927 -> 995 ;
996 [label="rel#count <= 1.1\nmse = 0.0\nsamples = 4\nvalue = 3.6"] ;
926 -> 996 ;
997 [label="http://dbpedia.org/ontology/elevation#1 <= 203.0\nmse = 0.0\nsamples = 2\nvalue = 3.8"] ;
996 -> 997 ;
998 [label="mse = 0.0\nsamples = 1\nvalue = 3.8"] ;
997 -> 998 ;
999 [label="mse = 0.0\nsamples = 1\nvalue = 3.8"] ;
997 -> 999 ;
1000 [label="http://dbpedia.org/ontology/areaTotal#1 <= 4650000.0\nmse = 0.0\nsamples = 2\nvalue = 3.5"] ;
996 -> 1000 ;
1001 [label="mse = 0.0\nsamples = 1\nvalue = 3.6"] ;
1000 -> 1001 ;
1002 [label="mse = -0.0\nsamples = 1\nvalue = 3.4"] ;
1000 -> 1002 ;
1003 [label="http://dbpedia.org/ontology/elevation#1 <= 229.5\nmse = 0.1\nsamples = 7\nvalue = 3.7"] ;
925 -> 1003 ;
1004 [label="http://dbpedia.org/ontology/type#1@OTHER <= 0.5\nmse = 0.0\nsamples = 4\nvalue = 3.5"] ;
1003 -> 1004 ;
1005 [label="http://dbpedia.org/ontology/city?inv#count <= 0.2\nmse = 0.0\nsamples = 2\nvalue = 3.6"] ;
1004 -> 1005 ;
1006 [label="mse = 0.0\nsamples = 1\nvalue = 3.5"] ;
1005 -> 1006 ;
1007 [label="mse = 0.0\nsamples = 1\nvalue = 3.6"] ;
1005 -> 1007 ;
1008 [label="http://dbpedia.org/ontology/elevation#1 <= 208.0\nmse = 0.0\nsamples = 2\nvalue = 3.4"] ;
1004 -> 1008 ;
1009 [label="mse = 0.0\nsamples = 1\nvalue = 3.4"] ;
1008 -> 1009 ;
1010 [label="mse = 0.0\nsamples = 1\nvalue = 3.4"] ;
1008 -> 1010 ;
1011 [label="http://dbpedia.org/ontology/type#1@OTHER <= 0.5\nmse = 0.0\nsamples = 3\nvalue = 4.0"] ;
1003 -> 1011 ;
1012 [label="mse = 0.0\nsamples = 1\nvalue = 3.7"] ;
1011 -> 1012 ;
1013 [label="http://dbpedia.org/ontology/region#1@<http://dbpedia.org/resource/Lake_County,_Illinois> <= 0.5\nmse = 0.0\nsamples = 2\nvalue = 4.1"] ;
1011 -> 1013 ;
1014 [label="mse = 0.0\nsamples = 1\nvalue = 4.2"] ;
1013 -> 1014 ;
1015 [label="mse = 0.0\nsamples = 1\nvalue = 4.0"] ;
1013 -> 1015 ;
1016 [label="http://dbpedia.org/ontology/region#1@<http://dbpedia.org/resource/Moravian-Silesian_Region> <= 0.5\nmse = 0.0\nsamples = 4\nvalue = 3.8"] ;
924 -> 1016 ;
1017 [label="http://dbpedia.org/ontology/elevation#1 <= 285.5\nmse = 0.0\nsamples = 3\nvalue = 3.8"] ;
1016 -> 1017 ;
1018 [label="http://dbpedia.org/ontology/region#1@<http://dbpedia.org/resource/Hradec_Krlov_Region> <= 0.5\nmse = 0.0\nsamples = 2\nvalue = 3.7"] ;
1017 -> 1018 ;
1019 [label="mse = 0.0\nsamples = 1\nvalue = 3.7"] ;
1018 -> 1019 ;
1020 [label="mse = 0.0\nsamples = 1\nvalue = 3.7"] ;
1018 -> 1020 ;
1021 [label="mse = -0.0\nsamples = 1\nvalue = 3.9"] ;
1017 -> 1021 ;
1022 [label="mse = -0.0\nsamples = 1\nvalue = 3.9"] ;
1016 -> 1022 ;
1023 [label="http://dbpedia.org/ontology/areaLand#2 <= 2250000.0\nmse = 0.1\nsamples = 71\nvalue = 3.3"] ;
923 -> 1023 ;
1024 [label="http://dbpedia.org/ontology/areaTotal#1 <= 10530000.0\nmse = 0.0\nsamples = 68\nvalue = 3.2"] ;
1023 -> 1024 ;
1025 [label="http://dbpedia.org/ontology/routeEnd?inv#count <= 0.5\nmse = 0.0\nsamples = 63\nvalue = 3.2"] ;
1024 -> 1025 ;
1026 [label="http://dbpedia.org/ontology/elevation#1 <= 253.5\nmse = 0.0\nsamples = 62\nvalue = 3.2"] ;
1025 -> 1026 ;
1027 [label="http://dbpedia.org/ontology/postalCode#count <= 0.2\nmse = 0.0\nsamples = 45\nvalue = 3.2"] ;
1026 -> 1027 ;
1028 [label="http://dbpedia.org/ontology/utcOffset#2@"-4" <= 0.5\nmse = 0.0\nsamples = 4\nvalue = 3.3"] ;
1027 -> 1028 ;
1029 [label="http://dbpedia.org/ontology/elevation#1 <= 183.5\nmse = 0.0\nsamples = 3\nvalue = 3.3"] ;
1028 -> 1029 ;
1030 [label="mse = 0.0\nsamples = 1\nvalue = 3.5"] ;
1029 -> 1030 ;
1031 [label="http://dbpedia.org/ontology/areaTotal#1 <= 2470848.7\nmse = 0.0\nsamples = 2\nvalue = 3.2"] ;
1029 -> 1031 ;
1032 [label="mse = 0.0\nsamples = 1\nvalue = 3.2"] ;
1031 -> 1032 ;
1033 [label="mse = 0.0\nsamples = 1\nvalue = 3.2"] ;
1031 -> 1033 ;
1034 [label="mse = -0.0\nsamples = 1\nvalue = 3.5"] ;
1028 -> 1034 ;
1035 [label="http://dbpedia.org/ontology/areaTotal#1 <= 7160000.0\nmse = 0.0\nsamples = 41\nvalue = 3.2"] ;
1027 -> 1035 ;
1036 [label="http://dbpedia.org/ontology/country#1@<http://dbpedia.org/resource/Italy> <= 0.5\nmse = 0.0\nsamples = 25\nvalue = 3.1"] ;
1035 -> 1036 ;
1037 [label="http://dbpedia.org/ontology/country#1@<http://dbpedia.org/resource/Austria> <= 0.5\nmse = 0.0\nsamples = 24\nvalue = 3.1"] ;
1036 -> 1037 ;
1038 [label="http://dbpedia.org/ontology/routeStart?inv#count <= 0.2\nmse = 0.0\nsamples = 18\nvalue = 3.1"] ;
1037 -> 1038 ;
1039 [label="http://dbpedia.org/ontology/elevation#1 <= 181.0\nmse = 0.0\nsamples = 15\nvalue = 3.1"] ;
1038 -> 1039 ;
1040 [label="http://dbpedia.org/ontology/areaWater#1 <= 50000.0\nmse = 0.0\nsamples = 4\nvalue = 3.1"] ;
1039 -> 1040 ;
1041 [label="http://dbpedia.org/ontology/timeZone#1@<http://dbpedia.org/resource/North_American_Central_Time_Zone> <= 0.5\nmse = 0.0\nsamples = 3\nvalue = 3.1"] ;
1040 -> 1041 ;
1042 [label="http://xmlns.com/foaf/0.1/name#count <= 0.2\nmse = 0.0\nsamples = 2\nvalue = 3.0"] ;
1041 -> 1042 ;
1043 [label="mse = 0.0\nsamples = 1\nvalue = 3.0"] ;
1042 -> 1043 ;
1044 [label="mse = 0.0\nsamples = 1\nvalue = 3.0"] ;
1042 -> 1044 ;
1045 [label="mse = 0.0\nsamples = 1\nvalue = 3.1"] ;
1041 -> 1045 ;
1046 [label="mse = -0.0\nsamples = 1\nvalue = 3.1"] ;
1040 -> 1046 ;
1047 [label="http://dbpedia.org/ontology/elevation#1 <= 195.5\nmse = 0.0\nsamples = 11\nvalue = 3.1"] ;
1039 -> 1047 ;
1048 [label="http://dbpedia.org/ontology/areaTotal#1 <= 5995000.0\nmse = 0.0\nsamples = 3\nvalue = 3.2"] ;
1047 -> 1048 ;
1049 [label="http://dbpedia.org/ontology/areaTotal#1 <= 4080000.0\nmse = 0.0\nsamples = 2\nvalue = 3.1"] ;
1048 -> 1049 ;
1050 [label="mse = 0.0\nsamples = 1\nvalue = 3.2"] ;
